param_name,param_shape,param_values
conv1.weight,"[32, 1, 3]",0.11462210863828659 -0.4959358274936676 -0.007596289273351431 -0.09199437499046326 -0.3335953652858734 0.40516966581344604 -0.099776990711689 0.26041367650032043 -0.36280113458633423 -0.18930897116661072 -0.5247644186019897 -0.565181314945221 0.39013606309890747 0.5415139198303223 -0.4076581299304962 -0.5769349932670593 -0.2379954755306244 -0.25765809416770935 0.20180195569992065 -0.2713899612426758 0.5336329340934753 -0.2729315161705017 -0.009427880868315697 0.030122390016913414 0.2780885696411133 -0.06248591095209122 -0.47343578934669495 -0.02302916720509529 -0.10432019829750061 -0.3175358772277832 0.3319157361984253 -0.34486129879951477 0.41806021332740784 -0.5500720143318176 -0.5437316298484802 -0.377717524766922 0.20034293830394745 0.062350425869226456 -0.29948896169662476 -0.47322317957878113 0.3435811996459961 -0.08325475454330444 -0.2778760492801666 -0.3939470052719116 -0.3249269127845764 -0.13787804543972015 0.16692033410072327 0.3261420726776123 0.17927083373069763 0.27769026160240173 -0.46662023663520813 -0.25392356514930725 0.12232904136180878 -0.20901304483413696 0.005487591493874788 -0.08880802243947983 0.1030723974108696 -0.37281736731529236 0.39354899525642395 0.2089603692293167 0.18019254505634308 0.16483654081821442 -0.3697494864463806 -0.4342726171016693 -0.0644044354557991 0.05646636709570885 0.19566716253757477 -0.1352151781320572 0.270073801279068 0.3272605538368225 -0.16061928868293762 -0.21979166567325592 0.14182914793491364 0.1841501146554947 -0.3317504823207855 -0.4991041123867035 0.5031308531761169 -0.4402621388435364 -0.45462387800216675 0.47337257862091064 0.4357333183288574 0.16328369081020355 0.42482098937034607 -0.5100029706954956 -0.1852666437625885 0.1287073940038681 0.13494433462619781 -0.3670523166656494 -0.3327937126159668 -0.36220115423202515 0.2915582060813904 -0.427165687084198 0.20826004445552826 0.0657631978392601 0.2903904914855957 -0.26189032196998596
conv1.bias,[32],0.3372044861316681 -0.4326270520687103 -0.20210851728916168 0.7620266079902649 -0.14487716555595398 0.250964492559433 -0.06050807237625122 0.0686286985874176 -0.25921323895454407 0.5666865706443787 0.3695491850376129 0.7003971934318542 0.09516213834285736 0.6138259768486023 0.23974844813346863 -0.2986598312854767 0.055470939725637436 -0.4388202130794525 0.30205199122428894 -0.045071497559547424 0.07215521484613419 0.7193058729171753 -0.34743791818618774 0.5658901333808899 -0.288545697927475 -0.47562462091445923 -0.033410489559173584 0.15677085518836975 0.563612699508667 0.5165829658508301 0.47589242458343506 0.15642423927783966
conv2.weight,"[64, 32, 3]",-0.07764875143766403 0.10051597654819489 -0.06680946052074432 0.06192769482731819 0.14069557189941406 0.07490966469049454 0.16940812766551971 -0.07077483832836151 -0.0906681939959526 0.04860173165798187 -0.07734950631856918 0.06684911996126175 0.09023290127515793 0.01676221378147602 -0.03895249590277672 -0.0343150794506073 0.04923303425312042 -0.010697996243834496 -0.12604841589927673 0.08707229048013687 0.01969599723815918 -0.017901606857776642 0.06797657907009125 0.043254151940345764 0.05408826470375061 -0.06450512260198593 -0.03234210982918739 0.0691959410905838 -0.06102494150400162 0.0019893748685717583 0.06155580282211304 0.1146848276257515 0.055029500275850296 0.033379629254341125 -0.06504243612289429 -0.10006659477949142 0.07379908859729767 0.04661563038825989 -0.04527817666530609 -0.07046061009168625 -0.022456254810094833 0.008262168616056442 -0.11564677208662033 0.06673497706651688 0.06012937054038048 0.010395507328212261 -0.05094337835907936 0.07694096863269806 -0.019991960376501083 0.0043529728427529335 0.002978290431201458 0.09808671474456787 -0.07770544290542603 0.0037425383925437927 -0.1128096953034401 0.027859479188919067 0.02613433636724949 -0.06928594410419464 -0.036045949906110764 -0.035165298730134964 0.019984500482678413 0.005040119867771864 -0.12390296906232834 -0.05021749064326286 -0.0886726826429367 0.08692765980958939 -0.06120606139302254 -0.008175951428711414 0.01849263533949852 0.11493750661611557 0.038957830518484116 -0.12007473409175873 0.07239395380020142 0.04174159839749336 -0.1330975890159607 -0.09731505066156387 -0.15676316618919373 -0.062089238315820694 -0.06260751932859421 -0.04448508098721504 0.07185550779104233 -0.02058163844048977 0.010630088858306408 -0.16773101687431335 -0.02560669556260109 -0.10164094716310501 0.06830555200576782 -0.12257904559373856 -0.0059135048650205135 -0.06645902246236801 0.012628311291337013 0.11490251868963242 -0.027084512636065483 0.08967232704162598 -0.12375050783157349 0.02065819501876831 0.08557354658842087 0.10399499535560608 0.2299192100763321 0.01584748923778534 -0.06506999582052231 -0.13107365369796753 -0.15645147860050201 0.08879105001688004 -0.19776110351085663 0.2317204773426056 0.2635791599750519 0.11160236597061157 -0.09013698250055313 -0.04667825624346733 -0.023352064192295074 0.20336078107357025 0.10363249480724335 0.12548598647117615 -0.18423356115818024 -0.08870451152324677 0.043289560824632645 0.2611711323261261 0.04728851094841957 0.11369135230779648 -0.1901346743106842 -0.12004176527261734 -0.0903739482164383 0.226718932390213 0.14831069111824036 0.25669848918914795 -0.02432788722217083 -0.0038445014506578445 0.10752754658460617 0.26590731739997864 0.2514568865299225 0.07581278681755066 -0.0973280668258667 0.1344791203737259 -0.02202383056282997 0.1786515712738037 0.1178741380572319 0.14948509633541107 0.2246674746274948 0.260312557220459 0.22684478759765625 -0.20203222334384918 0.055875882506370544 0.04392264783382416 -0.13603387773036957 0.100020632147789 0.022986220195889473 0.019766047596931458 -0.045459531247615814 -0.0018318070797249675 0.22445683181285858 -0.024005021899938583 0.09950121492147446 -0.10100043565034866 -0.05116697773337364 0.10241196304559708 -0.09380868822336197 0.10566689819097519 -0.04342386871576309 0.14960801601409912 0.24421049654483795 0.1648625135421753 -0.09646900743246078 0.07421892136335373 -0.03237070143222809 0.15590085089206696 0.15557047724723816 0.031373437494039536 -0.07266265898942947 -0.15075182914733887 0.04683021456003189 0.013924572616815567 -0.09604625403881073 -0.051824431866407394 -0.1722978800535202 -0.04755309224128723 0.139659121632576 -0.04650919511914253 0.007185271475464106 0.05510573834180832 0.10610338300466537 0.057686615735292435 0.12931478023529053 0.09963084012269974 0.18351823091506958 0.21453647315502167 0.12203697115182877 0.08126155287027359 0.037598542869091034 0.09684964269399643 0.009018092416226864 -0.00095227180281654 -0.021499179303646088 -0.004647786729037762 -0.031811755150556564 -0.026975827291607857 -0.007160606794059277 0.1377033144235611 0.21370048820972443 -0.053708821535110474 -0.0786563828587532 0.005446135066449642 0.043110016733407974 -0.0028444724157452583 -0.02185816317796707 0.08681349456310272 -0.08651769906282425 -0.025486910715699196 -0.04443715140223503 -0.12318890541791916 -0.03369773551821709 -0.05747181922197342 0.05138227716088295 -0.08748787641525269 0.0908634290099144 0.09625046700239182 0.021952496841549873 -0.03186962381005287 0.024602055549621582 -0.053902700543403625 -0.06839144974946976 -0.055464234203100204 -0.0832454264163971 -0.05583076924085617 -0.08917694538831711 0.03334293141961098 -0.0722605437040329 -0.0977800115942955 0.06613051146268845 0.044310394674539566 -0.14777429401874542 0.06893989443778992 -0.03029579296708107 0.10767807066440582 -0.03457977995276451 -0.018226806074380875 -0.140154629945755 0.06942963600158691 0.05166363716125488 0.07097229361534119 0.010380108840763569 -0.05002216994762421 -0.011301713064312935 -0.0661696121096611 -0.04304932430386543 0.06449323892593384 -0.1029132753610611 -0.017592722550034523 -0.023364434018731117 0.05398795008659363 -0.027740873396396637 -0.02815602347254753 0.13521607220172882 0.011121035553514957 0.002514604013413191 -0.16186892986297607 -0.07846281677484512 0.11076918989419937 -0.04383612796664238 -0.09628491848707199 -0.08093653619289398 0.021273773163557053 0.08939054608345032 -0.03803442418575287 0.14219164848327637 0.00654644425958395 0.0017208922654390335 -0.10995004326105118 -0.048900309950113297 -0.039319947361946106 0.006587987300008535 -0.07158830016851425 0.06540627032518387 0.09364612400531769 -0.058844804763793945 -0.10818872600793839 0.04747111350297928 0.019393980503082275 0.055626701563596725 -0.01370090339332819 -0.1142081767320633 -0.006583638954907656 -0.03862731158733368 0.06547191739082336 0.0885426476597786 0.017117900773882866 -0.10997438430786133 -0.10887175798416138 0.026447582989931107 0.028852421790361404 0.0029213051311671734 -0.14840994775295258 0.10053931921720505 0.01385827548801899 0.1529598832130432 0.03381891921162605 -0.03963622823357582 0.1701277792453766 0.02516092173755169 0.0655159130692482 0.09188008308410645 0.0037535815499722958 -0.11578858643770218 0.1497422456741333 0.15121448040008545 0.22464126348495483 -0.0049790251068770885 -0.13077960908412933 0.09807644784450531 -0.028596242889761925 -0.038701921701431274 -0.022324053570628166 0.0847826674580574 0.07489831745624542 -0.07682567834854126 0.12900622189044952 0.07961758971214294 0.18750980496406555 0.07757063955068588 -0.07077353447675705 0.04573417827486992 0.03347255289554596 0.09493193030357361 0.19014334678649902 -0.05659293755888939 0.059985242784023285 0.04172709584236145 0.09609274566173553 0.13497628271579742 0.05002392455935478 0.15361224114894867 0.20947900414466858 0.19566181302070618 0.011108169332146645 -0.027742665261030197 -0.09284105896949768 0.014401634223759174 0.09182646125555038 -0.045606255531311035 0.08745448291301727 0.08291840553283691 -0.04295686259865761 0.04258598014712334 -0.0650208592414856 -0.016244148835539818 0.0362931564450264 -0.033868707716464996 -0.09273107349872589 -0.015415295027196407 0.04872971400618553 -0.11735832691192627 0.12360909581184387 0.10825993120670319 0.16958263516426086 0.030184071511030197 0.025004690513014793 -0.048529867082834244 0.12259896099567413 0.06431418657302856 -0.045428186655044556 0.017277279868721962 0.12679612636566162 0.02115924470126629 0.09609890729188919 0.0131259486079216 -0.015334130264818668 0.09448627382516861 -0.13495178520679474 -0.06626801192760468 0.092513807117939 -0.08108831942081451 -0.11021547019481659 0.04893765226006508 -0.05901047959923744 -0.03330066800117493 0.12785865366458893 0.047837089747190475 0.16857755184173584 0.035255081951618195 0.0366782546043396 -0.05384001508355141 -0.028469815850257874 -0.08498361706733704 -0.09708108007907867 -0.10426539182662964 0.06126502528786659 0.16501781344413757 -0.018010880798101425 0.229050412774086 0.024129919707775116 -0.027782268822193146 -0.04627320542931557 -0.10875681042671204 -0.07602749019861221 0.1569390594959259 0.13042008876800537 0.004174952860921621 0.045173175632953644 -0.0513288639485836 0.025160327553749084 -0.017617104575037956 0.10343088209629059 -0.06177380308508873 0.04481206461787224 0.04149121046066284 -0.015627099201083183 0.0039244163781404495 0.018833748996257782 -0.04462530463933945 -0.05307631567120552 -0.044358208775520325 -0.018887681886553764 0.026283061131834984 0.14138418436050415 -0.1203267052769661 0.046172160655260086 0.09383364021778107 -0.09475622326135635 0.03190084919333458 0.036420371383428574 -0.06199632212519646 -0.07742778211832047 0.0030645953956991434 0.021795963868498802 -0.031632691621780396 0.0011368650011718273 -0.07589725404977798 0.012039045803248882 0.04081409424543381 0.035558976233005524 0.05080730468034744 0.10588515549898148 -0.09073110669851303 -0.07052181661128998 -0.0608835332095623 -0.015394732356071472 0.08756493031978607 0.0027817562222480774 0.039504073560237885 0.09827577322721481 0.11147326976060867 -0.10392816364765167 -0.042039982974529266 0.053154751658439636 0.043176036328077316 0.05080268159508705 -0.1171773299574852 -0.040831826627254486 0.10591060668230057 -0.014226776547729969 -0.07419843226671219 -0.03926190733909607 0.11115140467882156 -0.08860456943511963 0.06322124600410461 -0.12902872264385223 -0.04070454090833664 -0.03371945396065712 -0.042472973465919495 -0.00856288243085146 -0.14270226657390594 0.06801237165927887 -0.07789553701877594 -0.024310939013957977 0.1279303878545761 -0.1300089806318283 -0.16439001262187958 -0.040360987186431885 0.025357279926538467 0.09715407341718674 -0.030793415382504463 0.005571305751800537 0.06654427200555801 0.011762326583266258 0.023330913856625557 0.09327507019042969 0.08481473475694656 -0.06723945587873459 0.07745042443275452 0.07709528505802155 0.026564715430140495 0.06973104178905487 0.22408254444599152 0.012449316680431366 -0.10184259712696075 -0.07984969019889832 -0.007043829187750816 0.07465188950300217 -0.12454554438591003 0.033044327050447464 0.10764439404010773 0.15163001418113708 0.03201127424836159 -0.13623933494091034 -0.1473083347082138 -0.013493793085217476 0.20265185832977295 0.11164820939302444 -0.10025709867477417 0.022611094638705254 -0.12913617491722107 -0.013458676636219025 0.053183332085609436 0.10895684361457825 -0.0977005586028099 -0.022444143891334534 -0.14232313632965088 0.058163996785879135 0.05640542134642601 0.09746447950601578 0.03324054181575775 -0.06446205079555511 0.021395793184638023 0.052299078553915024 0.20240400731563568 0.16265834867954254 -0.10787667334079742 -0.07681971788406372 0.017278937622904778 0.00028326467145234346 0.15773136913776398 0.10852811485528946 0.12650169432163239 0.08397658914327621 0.14796176552772522 0.007497658021748066 -0.13921989500522614 -0.08928003907203674 -0.06144845113158226 0.043281298130750656 0.011901922523975372 0.010235115885734558 -0.0673244446516037 -0.06341779232025146 -0.03393811732530594 0.048271652311086655 0.15120719373226166 -0.036593787372112274 -0.03251528739929199 -0.02825462818145752 -0.039028313010931015 0.03685478866100311 0.20850405097007751 0.021750086918473244 0.1678648293018341 0.06826144456863403 0.014807555824518204 -0.10746617615222931 -0.09712334722280502 -0.11056375503540039 0.025384485721588135 0.14190298318862915 -0.014991912059485912 0.02436738647520542 -0.08692064136266708 0.030089089646935463 -0.07467673718929291 0.07549379765987396 -0.0455540306866169 -0.12457592040300369 -0.053856901824474335 0.024110374972224236 -0.023304736241698265 0.010417869314551353 0.1310362070798874 0.11072256416082382 0.12386312335729599 0.04900720342993736 0.08162454515695572 0.052456311881542206 -0.0039054134394973516 0.04578876867890358 0.0435502789914608 -0.12170200049877167 -0.05408735200762749 0.16527847945690155 0.029537096619606018 -0.11339841783046722 0.039396002888679504 -0.10098715871572495 -0.02506343461573124 0.040997397154569626 -0.06552013754844666 -0.002287572482600808 0.1478429138660431 0.0009674057364463806 -0.06364583969116211 0.029215753078460693 0.007162042427808046 0.0828373059630394 -0.0794401466846466 -0.0245889350771904 -0.014543451368808746 -0.035211727023124695 0.10449562221765518 0.06224822625517845 -0.05750557780265808 0.02981642261147499 0.015378721058368683 -0.12522993981838226 -0.09828700125217438 0.09085607528686523 0.01020013727247715 -0.05541369691491127 -0.0375673845410347 0.09435860812664032 -0.027132833376526833 -0.07329186052083969 -0.08800575882196426 0.017235487699508667 0.046871766448020935 -0.035162679851055145 -0.10814355313777924 -0.02187880501151085 -0.013149943202733994 -0.08813394606113434 0.08336460590362549 -0.042875684797763824 -0.02470581978559494 -0.05809736251831055 -0.03558802604675293 0.05566786229610443 -0.09041675180196762 -0.015734301880002022 -0.07767382264137268 -0.010232525877654552 0.0706808939576149 0.03891628980636597 -0.024621911346912384 0.0964130312204361 0.03406745195388794 -0.04957627132534981 -0.10479996353387833 0.10477691888809204 -0.11910625547170639 -0.07527860254049301 -0.10460501909255981 0.07189321517944336 0.11709044873714447 0.09369119256734848 0.08518557250499725 0.00951012596487999 0.1154254898428917 -0.04157398268580437 0.017640719190239906 -0.1694684624671936 0.0741097629070282 0.035366326570510864 0.00043860694859176874 -0.0440840870141983 -0.04158029705286026 0.10799431800842285 0.09346319735050201 0.022128663957118988 0.11282330006361008 -0.061400629580020905 -0.048598967492580414 -0.07851257920265198 0.1443065106868744 0.08750084787607193 0.07786939293146133 -0.14435188472270966 -0.039545148611068726 -0.01283184438943863 -0.08766768127679825 0.04003483057022095 -0.09888280928134918 0.036185335367918015 -0.057364292442798615 0.10401181876659393 0.02928832545876503 0.06503043323755264 -0.09818296134471893 -0.08504467457532883 -0.014737840741872787 -0.14740855991840363 -0.0015201809583231807 0.08505267649888992 -0.0034064576029777527 0.06941097229719162 0.14083236455917358 0.044857338070869446 0.08254572004079819 0.08098138123750687 0.02736669033765793 0.1024150550365448 0.02905075065791607 0.018952369689941406 -0.004688617307692766 -0.10280148684978485 0.01686006784439087 -0.042311783879995346 -0.052859578281641006 0.013290861621499062 -0.03186866268515587 0.044006578624248505 -0.012173008173704147 -0.02002646215260029 0.04323430731892586 0.08173571527004242 -0.000507621793076396 0.05458775535225868 0.006111243274062872 -0.10184837132692337 -0.059265170246362686 0.06903256475925446 0.011045880615711212 -0.09776395559310913 0.030643783509731293 0.03746645897626877 -0.04748786240816116 0.019778616726398468 0.04443630576133728 -0.07276949286460876 -0.10700279474258423 0.030220549553632736 -0.01691475883126259 0.08172810077667236 -0.019540978595614433 -0.021742092445492744 -0.05909381061792374 0.013248699717223644 0.0070794145576655865 0.07338003814220428 0.0871502161026001 0.06270360201597214 0.06001807749271393 0.0737329050898552 0.02312031015753746 -0.020741499960422516 0.06632338464260101 -0.11137963086366653 -0.08179422467947006 -0.02902040258049965 0.12808778882026672 -0.0346611812710762 -0.0990549698472023 -0.09616594761610031 -0.06852681189775467 -0.08203039318323135 -0.039751093834638596 -0.031213857233524323 -0.06989797949790955 -0.04337315633893013 -0.08598219603300095 0.05830974504351616 -0.06997298449277878 -0.03624377399682999 -0.07542197406291962 -0.0338933952152729 0.13268537819385529 -0.05560145527124405 -0.06932339817285538 0.030716389417648315 0.11383172124624252 -0.0708867758512497 -0.06841050088405609 0.01449305098503828 -0.14668947458267212 0.08588430285453796 0.020763564854860306 0.022151831537485123 0.053391505032777786 -0.058703385293483734 -0.0388215109705925 -0.0006876032566651702 0.09664877504110336 0.011128281243145466 0.09060344099998474 0.09625235199928284 -0.024735042825341225 -0.10937824845314026 0.08636026829481125 0.10528954118490219 0.19188052415847778 -0.005110928788781166 0.09624571353197098 0.1883712112903595 0.1539333313703537 0.1850869357585907 0.07390574365854263 0.09342476725578308 0.01583006978034973 0.06833359599113464 0.14356067776679993 0.05729897320270538 -0.06760246306657791 -0.04511945694684982 0.09076423197984695 -0.10915247350931168 -0.018082499504089355 -0.03246919810771942 0.0905788317322731 0.12002906203269958 0.1021999642252922 0.18163985013961792 0.13917787373065948 0.10122320801019669 0.10310517251491547 0.1077568382024765 0.07810027152299881 0.08027458190917969 0.039912596344947815 0.15001752972602844 0.1300208419561386 0.009927944280207157 -0.1161874532699585 -0.09100717306137085 -0.011797202751040459 0.07048556953668594 0.19250954687595367 0.020797032862901688 0.02032015100121498 -0.0766347274184227 -0.04957800358533859 -0.013973853550851345 0.022498060017824173 0.11394289880990982 -0.07729952037334442 0.08257512748241425 0.08080410957336426 0.009953275322914124 -0.0036767087876796722 0.14010383188724518 -0.059367381036281586 0.05618972331285477 0.05084848776459694 0.11311313509941101 -0.010669088922441006 0.020775701850652695 -0.0964699238538742 0.06646212190389633 0.16511894762516022 0.022955957800149918 -0.016615044325590134 0.005090515129268169 -0.027029724791646004 -0.009325724095106125 0.14126180112361908 -0.05928599834442139 0.1657690852880478 -0.041033338755369186 -0.04338355362415314 -0.04852414131164551 -0.09965582191944122 0.10193267464637756 -0.07600253820419312 -0.010906354524195194 0.1100928857922554 0.10032014548778534 -0.04590674862265587 -0.06859588623046875 -0.11372850090265274 -0.011747101321816444 0.02018466219305992 0.14413994550704956 0.1801590472459793 0.09664661437273026 0.10921419411897659 0.05474027991294861 0.1260327845811844 0.1349358856678009 -0.007184428162872791 0.09170828014612198 0.04784928634762764 -0.04327854514122009 0.055193036794662476 0.004015537444502115 0.12827670574188232 -0.0758850947022438 0.011812703683972359 0.03501095995306969 0.11112847924232483 -0.013213537633419037 0.05782276391983032 0.05472978577017784 0.06206526979804039 0.04581969976425171 0.02748720534145832 -0.11753828078508377 -0.1278408169746399 -0.14412511885166168 -0.01816377229988575 -0.03936397284269333 -0.04475521296262741 -0.05902940034866333 -0.08742489665746689 -0.07731430232524872 0.02554117701947689 0.05811992660164833 -0.0030611460097134113 -0.13788314163684845 -0.04564638063311577 -0.1106240376830101 -0.11557290703058243 -0.001160927815362811 0.057100746780633926 -0.05693734064698219 -0.020803198218345642 -0.08577876538038254 0.055081840604543686 0.07020150125026703 -0.02471601590514183 -0.07963339239358902 -0.05304352566599846 0.06010323017835617 -0.04751313105225563 0.03852124884724617 -0.010284585878252983 0.05487558990716934 0.047476571053266525 0.06170167401432991 0.013265279121696949 -0.0912628024816513 0.04803008586168289 -0.043097659945487976 -0.018731705844402313 -0.07431523501873016 -0.0150544922798872 0.07360705733299255 -0.06492036581039429 0.017670629546046257 -0.06772534549236298 -0.0862322747707367 0.07988467067480087 -0.015328936278820038 -0.05179357901215553 0.006160551682114601 -0.026828156784176826 -0.13986167311668396 -0.015181518159806728 0.01849927008152008 0.05572817847132683 -0.0729619562625885 0.08953025937080383 -0.017077723518013954 -0.024437345564365387 0.05450093373656273 -0.047439005225896835 0.12251731008291245 -0.09071138501167297 -0.06670939922332764 -0.04507777467370033 -0.0942055806517601 -0.025268564000725746 0.01256089098751545 0.023830704391002655 -0.08161206543445587 0.04631407558917999 0.03600933402776718 -0.014900650829076767 0.006507150828838348 -0.0039865062572062016 -0.12200663238763809 0.0323319286108017 0.02675589546561241 -0.011772098951041698 -0.0025731725618243217 -0.06735139340162277 0.007026549428701401 -0.10059559345245361 0.04375066980719566 0.023722603917121887 -0.12180139124393463 0.04701182618737221 0.052866131067276 0.07343214750289917 -0.033148422837257385 -0.11002874374389648 -0.028558894991874695 -0.06506098806858063 0.05771563947200775 0.0036589009687304497 0.002088064095005393 -0.01175861619412899 -0.07485546171665192 0.08276428282260895 -0.007030323147773743 -0.08936630934476852 0.05226387456059456 0.06453084200620651 -0.09527599066495895 0.040701691061258316 0.06320367753505707 0.01703404262661934 -0.022824591025710106 -0.033652983605861664 0.00839068740606308 -0.04472051188349724 -0.0738859549164772 -0.06434880942106247 -0.05337521806359291 0.048818666487932205 -0.06466367095708847 0.06105174124240875 -0.04133154824376106 0.08925146609544754 -0.04658081755042076 -0.1103120669722557 0.012969281524419785 -0.1111944392323494 0.012796870432794094 -0.05149613693356514 0.009271137416362762 0.03646613657474518 -0.060181401669979095 -0.009678376838564873 0.09026220440864563 -0.059685979038476944 -0.08110300451517105 -0.008139622397720814 -0.009975723922252655 -0.07645604014396667 -0.03728549927473068 -0.0646468997001648 -0.01588318683207035 0.027488717809319496 -0.046209558844566345 0.05628858879208565 0.07817228883504868 -0.007027371786534786 -0.037966687232255936 0.05930040776729584 -0.08753878623247147 -0.025849927216768265 -0.10704910010099411 -0.07702267915010452 -0.10298951715230942 -0.008829948492348194 -0.0655561238527298 -0.07336302101612091 -0.07136636227369308 -0.06592616438865662 0.05478076636791229 -0.004974472336471081 0.01628487929701805 -0.054324157536029816 0.09646700322628021 0.08859849721193314 -0.02939894050359726 -0.05921996757388115 0.06880830228328705 -0.08090879768133163 -0.09418333321809769 0.03855326026678085 -0.12561658024787903 0.0819125697016716 -0.06238942593336105 -0.051576435565948486 -0.06467346847057343 -0.05648471415042877 -0.009528754279017448 -0.012322796508669853 0.0691557377576828 -0.11732155084609985 0.016877153888344765 -0.037587422877550125 -0.06057467311620712 -0.09206493943929672 -0.09775537252426147 0.07868946343660355 -0.07177472114562988 0.0409013032913208 0.07003180682659149 0.07226832956075668 0.042688969522714615 -0.007472873665392399 0.010636696591973305 -0.02545945532619953 -0.0538594014942646 0.03489004075527191 0.03290829062461853 0.08798795193433762 -0.0037269757594913244 0.03695705160498619 -0.06839771568775177 -0.015439181588590145 -0.05298144742846489 -0.06751970201730728 -0.01559752319008112 0.06650320440530777 -0.08529331535100937 0.07029500603675842 -0.06699144840240479 0.09368181973695755 0.08086227625608444 0.031299009919166565 0.05598599463701248 -0.039652738720178604 -0.05061240866780281 0.021055569872260094 -0.05701267346739769 0.050138261169195175 -0.007590584456920624 -0.004105458036065102 0.022039946168661118 -0.029542598873376846 -0.031085142865777016 -0.06450369954109192 0.03758475184440613 -0.02798689343035221 0.03563392534852028 -0.038744404911994934 0.031461186707019806 0.04634905233979225 0.05115627497434616 -0.10818850249052048 -0.08208004385232925 0.06659311056137085 -0.0034441326279193163 -0.09125082939863205 0.023459868505597115 0.01680903695523739 -0.060775917023420334 -0.016130486503243446 0.0838928148150444 0.032726436853408813 0.03246403485536575 -0.07098831981420517 -0.025871992111206055 -0.04917698726058006 -0.05739452689886093 -0.03960326313972473 -0.03155062720179558 0.054838381707668304 -0.014697253704071045 -0.03296390175819397 0.06284595280885696 -0.10517654567956924 0.09061141312122345 0.00828724354505539 -0.03614452853798866 0.013230450451374054 0.017007460817694664 -0.03622462972998619 0.03160296753048897 -0.08395069092512131 -0.1201530247926712 0.011568025685846806 -0.08346150815486908 -0.04536157101392746 -0.10001194477081299 -0.01683727838099003 0.0966220274567604 -0.10565660893917084 -0.044266775250434875 -0.036213282495737076 0.01910623349249363 -0.046832066029310226 -0.06820440292358398 -0.09879394620656967 -0.12306076288223267 -0.08001439273357391 -0.09248975664377213 0.07146161794662476 0.14545868337154388 -0.11357595771551132 0.08453856408596039 -0.030681267380714417 0.0028382670134305954 0.0474129356443882 -0.0687277689576149 0.0237702876329422 0.017597243189811707 -0.09996838122606277 -0.07667966932058334 0.06614542007446289 -0.03161554038524628 -0.009562842547893524 -0.028766803443431854 0.020991841331124306 0.00898705143481493 -0.1130024716258049 0.04925159364938736 -0.07763569802045822 0.07478642463684082 -0.059244029223918915 0.023049719631671906 -0.030606023967266083 0.012265272438526154 0.010401532053947449 0.01979745179414749 -0.0982145220041275 -0.08785621076822281 0.012091675773262978 -0.010715208947658539 -0.024798870086669922 -0.04740673303604126 -0.10194472968578339 -0.04560983180999756 0.0519021712243557 -0.0545387901365757 0.013715318404138088 0.0783640593290329 0.0649823248386383 -0.007402665913105011 0.04676130414009094 -0.0034438602160662413 0.09438931196928024 0.026763584464788437 -0.04285268858075142 -0.14831632375717163 0.078420490026474 -0.06672501564025879 -0.05799650028347969 0.07495646178722382 -0.09990977495908737 -0.07673141360282898 -0.017496677115559578 -0.01809307560324669 0.07924415916204453 -0.15530715882778168 -0.013370733708143234 -0.13054105639457703 0.020630663260817528 -0.00876129325479269 0.12376002222299576 -0.03538595139980316 -0.027803821489214897 -0.05115912854671478 -0.04792516678571701 -0.1325216144323349 -0.15151530504226685 0.03667651116847992 0.00044258436537347734 -0.014337279833853245 -0.030180562287569046 -0.050280556082725525 0.013300424441695213 0.10236930847167969 0.036491040140390396 -0.08453325182199478 -0.16599637269973755 -0.17659412324428558 0.06240050494670868 0.10004042088985443 -0.11744373291730881 -0.023825451731681824 -0.052794475108385086 -0.0638272613286972 -0.06685718894004822 -0.05095657706260681 0.005227355752140284 -0.1487138569355011 -0.12643174827098846 -0.13640771806240082 -0.06958179175853729 0.04188227653503418 -0.0015239566564559937 0.040500789880752563 -0.0029896125197410583 0.07050645351409912 0.020615631714463234 -0.004904022440314293 0.004151687026023865 -0.0633060559630394 -0.008796192705631256 -0.02662956714630127 -0.010106272995471954 0.016405530273914337 -0.009504541754722595 -0.058510638773441315 -0.1063111275434494 -0.08302958309650421 -0.04010264575481415 -0.09733521193265915 -0.06399139761924744 0.01945940963923931 0.046124041080474854 0.04205112159252167 -0.02801988273859024 -0.0006333515048027039 0.04579895734786987 -0.04383670538663864 -0.045740071684122086 0.012606404721736908 0.08057411015033722 0.06356534361839294 -0.04986786097288132 -0.11495483666658401 -0.08141093701124191 0.06410618126392365 0.10072784125804901 0.09173859655857086 0.07574087381362915 -0.029446981847286224 0.016079099848866463 0.09510847926139832 -0.032705605030059814 0.0022372454404830933 -0.07145743817090988 0.047402262687683105 -0.10046029090881348 0.02988751232624054 0.06578660756349564 0.033248092979192734 -0.051400285214185715 -0.0753437876701355 -0.09582442045211792 0.07417662441730499 -0.08980247378349304 -0.002396315336227417 -0.05601174011826515 -0.060170598328113556 -0.0513739138841629 0.08653733134269714 0.034427668899297714 0.02802988514304161 -0.0718279778957367 0.004122808575630188 -0.0857732743024826 -0.09192929416894913 -0.06826375424861908 -0.05427022650837898 0.0121026411652565 -0.07986178249120712 -0.03195274993777275 0.05109807848930359 -0.06475043296813965 -0.07008358091115952 0.09369960427284241 -0.03198964148759842 0.08393718302249908 -0.05576309934258461 0.07159051299095154 0.06593099236488342 -0.02977100759744644 0.056426409631967545 -0.008227151818573475 -0.041760656982660294 -0.04807969927787781 -0.10717302560806274 -0.0932345986366272 0.014858115464448929 0.03076229803264141 -0.09620346128940582 -0.06732982397079468 -0.0432031974196434 -0.030869200825691223 -0.023382090032100677 -0.06716476380825043 -0.010028064250946045 0.01624452695250511 0.05111926421523094 -0.029637018218636513 0.10991007089614868 -0.008574852719902992 -0.007750428281724453 0.10734717547893524 0.10530837625265121 0.07333122193813324 -0.02450713701546192 -0.05531414970755577 -0.027775963768363 0.012571882456541061 0.02335752733051777 0.08034612238407135 -0.01621280238032341 -0.10838581621646881 -0.11824154853820801 0.054219797253608704 -0.05274606868624687 0.046933144330978394 -0.04727553576231003 -0.08074388653039932 0.08000987023115158 0.0030441454146057367 0.06769061833620071 0.11975283920764923 0.1567145437002182 -0.020762791857123375 0.07072529941797256 -0.06684403121471405 0.03996395692229271 0.06080556660890579 0.06257805228233337 0.06981384009122849 0.005434723105281591 0.07223766297101974 -0.08158055692911148 0.11162739992141724 0.08550994843244553 -0.14090049266815186 -0.08047700673341751 0.06786543875932693 0.10014834254980087 -0.0642087534070015 -0.11188501119613647 -0.09084898978471756 -0.07720731943845749 0.05341799557209015 -0.00977371260523796 0.06328748911619186 -0.011618079617619514 -0.021147504448890686 -0.015938125550746918 -0.061560358852148056 0.0264577679336071 -0.056431472301483154 -0.06024293974041939 -0.05935082957148552 -0.08457779884338379 -0.013507718220353127 -0.0681910291314125 0.08862826973199844 0.1350877732038498 0.05894501134753227 0.05272938311100006 0.04115932062268257 0.07340138405561447 -0.1020989716053009 -0.010643510147929192 -0.11043906211853027 0.08459046483039856 0.16666081547737122 -0.028834905475378036 0.13153834640979767 0.09225569665431976 -0.0010591507889330387 -0.04099160432815552 0.11491186171770096 0.08972951769828796 -0.09143240004777908 0.01853039488196373 -0.008356207050383091 0.029453683644533157 0.01986517570912838 -0.04022451862692833 0.0337291955947876 0.020174546167254448 -0.05731241777539253 -0.05968553200364113 0.025308778509497643 0.03014324977993965 -0.06234916299581528 0.10444601625204086 -0.04755938798189163 0.056743964552879333 -0.003311833832412958 0.04886933043599129 -0.0768878385424614 -0.022412454709410667 -0.09297232329845428 -0.032414183020591736 0.006520221941173077 0.038008496165275574 -0.08012738823890686 -0.052074234932661057 0.02449224703013897 -0.13423745334148407 0.004944460932165384 0.0005006521823816001 -0.022454718127846718 0.1418311595916748 0.16158071160316467 -0.11187926679849625 -0.09442763030529022 -0.013788774609565735 -0.044095270335674286 -0.0030360182281583548 -0.08149746805429459 -0.0057295579463243484 -0.03451033681631088 -0.03827592357993126 -0.07313992083072662 -0.028553128242492676 0.14844180643558502 -0.1167425811290741 0.013259317725896835 0.0024258752819150686 0.0026098922826349735 0.07498815655708313 0.06265769153833389 -0.06609893590211868 -0.01779811829328537 -0.1627131551504135 0.0237137284129858 -0.059518687427043915 0.11009678244590759 -0.04793255403637886 0.12188022583723068 0.022915659472346306 -0.1173538789153099 -0.0921657457947731 -0.028991959989070892 -0.025355283170938492 0.019526951014995575 0.013327518478035927 -0.142469584941864 7.944604294607416e-05 0.1660635769367218 -0.058672741055488586 -0.05835680663585663 0.0513228103518486 -0.059025317430496216 -0.017650175839662552 -0.07762009650468826 0.03190195932984352 0.0014136186800897121 0.013655593618750572 -0.09561029821634293 -0.006923444103449583 0.056637607514858246 -0.11494548618793488 -0.026580188423395157 -0.0441826768219471 0.034184712916612625 -0.08786749839782715 -0.004073190037161112 -0.06178438663482666 -0.08712735772132874 0.07286728918552399 0.042289458215236664 0.038909513503313065 0.038560621440410614 -0.0515848845243454 0.20756785571575165 -0.07989469915628433 -0.01929543912410736 0.05630097910761833 -0.04671914875507355 -0.008762967772781849 0.00873812660574913 0.07523198425769806 0.020446743816137314 0.12509235739707947 0.06400985270738602 -0.1279938668012619 -0.16103266179561615 0.025176066905260086 0.02534601092338562 -0.04695872217416763 0.0314800962805748 -0.059246160089969635 0.05067861080169678 0.11573003232479095 -0.015803856775164604 -0.06314022839069366 0.09548088163137436 -0.188888281583786 -0.09307003021240234 0.05547865480184555 -0.06316391378641129 0.16372264921665192 0.06290299445390701 -0.03223598375916481 -0.0946274846792221 0.06265971809625626 -0.04864490404725075 0.10325741022825241 -0.04126252979040146 -0.04266074672341347 -0.10748539865016937 -0.0711505338549614 0.05668117478489876 -0.04244585335254669 -0.0718659907579422 0.07795777171850204 -0.12899735569953918 -0.050199590623378754 0.04930117726325989 0.13601835072040558 0.15818236768245697 -0.09247074276208878 -0.11370982229709625 -0.0006289364537224174 -0.04751387611031532 0.04367664456367493 -0.06113274022936821 0.049577172845602036 -0.11586226522922516 -0.1339292973279953 -0.1400996595621109 0.0960846096277237 0.012462579645216465 -0.0258738175034523 0.04135090857744217 -0.06927944719791412 -0.09291905909776688 -0.00895296037197113 0.029092393815517426 -0.04805095121264458 -0.021823463961482048 -0.16293278336524963 -0.10128864645957947 0.03630976751446724 0.02208928018808365 -0.05353113263845444 -0.08349530398845673 -0.01756003499031067 0.09277886897325516 -0.09997697919607162 0.024782247841358185 0.01043826062232256 -0.11853376030921936 -0.07265182584524155 -0.062482722103595734 0.1654517650604248 0.1484358012676239 -0.04851387068629265 -0.0680786743760109 -0.008309152908623219 0.04051261395215988 0.023379983380436897 0.013131494633853436 -0.07997976988554001 0.07481393963098526 0.12544086575508118 0.015237033367156982 0.08210942894220352 -0.016012724488973618 0.1257742941379547 -0.062302105128765106 0.058714427053928375 0.02685599774122238 -0.11151830106973648 -0.09649614244699478 -0.11961858719587326 0.09809164702892303 0.04181049019098282 0.019384415820240974 -0.05714496225118637 -0.14199745655059814 -0.008209824562072754 -0.02270362712442875 -0.008343309164047241 0.06717846542596817 -0.05105455964803696 0.028110282495617867 0.02152179926633835 -0.02507161907851696 0.07164694368839264 -0.06922690570354462 -0.03663277253508568 0.07845063507556915 -0.05969648435711861 0.03260975331068039 -0.014468667097389698 0.06604255735874176 0.10883627086877823 -0.03374569118022919 -0.11996854841709137 -0.022649653255939484 -0.05891501531004906 0.08650815486907959 -0.09517591446638107 0.05336800590157509 -0.052577242255210876 -0.09429047256708145 -0.10048365592956543 -0.03780612722039223 0.058496519923210144 0.030525151640176773 -0.006540338974446058 -0.027891118079423904 0.06631320714950562 0.09015552699565887 -0.045264046639204025 0.018005164340138435 -0.07195515185594559 0.017110655084252357 0.017028743401169777 -0.021023374050855637 0.011049862019717693 -0.09020587056875229 0.05021436884999275 0.024112699553370476 -0.024464916437864304 -0.03193194046616554 0.0915745198726654 0.01632748544216156 0.06378401815891266 -0.03785215690732002 0.0924004465341568 -0.0542033351957798 0.02947475202381611 -0.11851741373538971 0.049796439707279205 -0.08631722629070282 -0.10352500528097153 0.07910651713609695 0.12699587643146515 -0.020722443237900734 0.07235793769359589 -0.04231049865484238 0.04309245944023132 -0.077191062271595 0.07405976206064224 0.02212105132639408 -0.0007087077246978879 -0.010094767436385155 -0.11689392477273941 0.0023690005764365196 -0.0628693476319313 -0.05822912976145744 0.03559655323624611 -0.08888569474220276 0.08319108188152313 -0.03695650398731232 0.08779061585664749 -0.08151151239871979 -0.053993020206689835 -0.0047011529095470905 0.05645319074392319 0.0544099323451519 0.0748402327299118 -0.1071586161851883 0.17930184304714203 -0.06651566922664642 0.015847288072109222 0.041033968329429626 0.017461566254496574 -0.07664766162633896 0.06542199105024338 0.08145907521247864 -0.006067970301955938 0.08875171840190887 -0.04448061063885689 -0.038811877369880676 0.03038572520017624 -0.046778541058301926 -0.0648261159658432 -0.15409117937088013 0.08074327558279037 -0.05124051496386528 0.02373887598514557 0.022270433604717255 -0.015375048853456974 0.06414563208818436 -0.05972319468855858 0.009637987241148949 -0.23313556611537933 -0.05507684499025345 0.004834028892219067 0.07300139963626862 0.0809805691242218 -0.09188757091760635 0.023974763229489326 -0.0556427463889122 0.11468352377414703 0.010213632136583328 0.0834333598613739 0.09160780161619186 0.10166212171316147 -0.046925317496061325 0.14735287427902222 0.07711373269557953 0.002009484451264143 -0.11127728223800659 0.03917587548494339 -0.10249321162700653 -0.10076691955327988 -0.05582670867443085 -0.0224937554448843 0.01119574811309576 -0.058998119086027145 0.0424988679587841 0.038464855402708054 0.03902246803045273 -0.11126317828893661 0.06708953529596329 0.10227179527282715 0.04132603853940964 0.0670022964477539 -0.07186435908079147 -0.04084138944745064 -0.05100688710808754 0.11721673607826233 -0.025579290464520454 0.016607996076345444 0.061417773365974426 0.07704940438270569 0.08893150091171265 0.004110787995159626 -0.08364322036504745 -0.17607785761356354 -0.000134262241772376 0.04622557759284973 0.022191980853676796 0.05032089352607727 -0.041699860244989395 -0.012101196683943272 0.05610381066799164 -0.10906189680099487 -0.0745912715792656 -0.022782379761338234 -0.05590302497148514 -0.13368044793605804 -0.023721927776932716 -0.008387621492147446 0.14328815042972565 0.11234166473150253 0.05667480453848839 0.12807627022266388 -0.027319643646478653 -0.04552149400115013 -0.0608799010515213 -0.0111970454454422 0.07972785085439682 0.029457684606313705 0.06448733806610107 0.1580839902162552 0.1074235662817955 0.07629160583019257 0.0517297089099884 -0.07795849442481995 0.09056510776281357 -0.059725072234869 -0.1977548897266388 -0.12039453536272049 0.11462301760911942 0.018265901133418083 0.08673220872879028 -0.029043002054095268 -0.18583938479423523 0.10532540827989578 -0.025478197261691093 -0.04507974535226822 0.04912673681974411 -0.11440884321928024 0.07089423388242722 0.038575757294893265 -0.04991143196821213 -0.01758700981736183 -0.027808353304862976 -0.03848503530025482 0.016033554449677467 -0.06321769952774048 -0.07674148678779602 0.06820297241210938 0.04055744409561157 0.009644018486142159 -0.03066716156899929 -0.023271329700946808 0.07567994296550751 -0.08798426389694214 0.046574778854846954 -0.008091004565358162 -0.09588199108839035 0.08376751840114594 0.06382974982261658 0.07546135783195496 -0.08186454325914383 -0.09299220889806747 0.013883803971111774 -0.04589097574353218 0.07008581608533859 -0.05321839079260826 0.06922727823257446 0.0030769482254981995 0.08485729247331619 -0.0846545398235321 -0.04169522598385811 -0.019675903022289276 -0.056839991360902786 0.07951641082763672 0.0585077740252018 -0.029161296784877777 0.012535445392131805 -0.10050063580274582 0.028234340250492096 0.017051266506314278 0.07530027627944946 -0.034854501485824585 -0.04304595664143562 -0.06421458721160889 0.020199090242385864 0.02009160816669464 0.05416859686374664 0.08864753693342209 0.02264740876853466 -0.12085156887769699 -0.05976927652955055 -0.047496043145656586 -0.015687087550759315 0.0615965873003006 -0.007699228823184967 0.016280747950077057 -0.049281783401966095 0.037860702723264694 -0.0187818743288517 0.0689593181014061 0.03527195006608963 -0.12354547530412674 -0.04455892741680145 0.033761464059352875 -7.453608850482851e-05 0.04530928656458855 -0.08366462588310242 0.011354955844581127 0.08176030218601227 -0.03333708271384239 -0.025500070303678513 -0.00267811375670135 0.0464264452457428 -0.0036877128295600414 0.13298869132995605 0.12055344134569168 -0.11808816343545914 -0.01987283304333687 -0.06347338855266571 0.032383471727371216 0.07266686111688614 -0.04564085230231285 -0.04608116298913956 0.13334962725639343 -0.02051842398941517 -0.07981385290622711 0.05414927005767822 -0.02753787860274315 -0.06502384692430496 -0.06152297183871269 -0.06949951499700546 0.011210955679416656 -0.1813299059867859 0.0556015744805336 0.10312092304229736 0.10600833594799042 0.10443924367427826 0.05758671462535858 0.03838004916906357 0.057906538248062134 0.03390925005078316 -0.11536061018705368 -0.03509071096777916 -0.02582733891904354 0.016272425651550293 -0.025161439552903175 0.11774629354476929 0.07223249971866608 -0.09340132027864456 -0.03152559697628021 -0.03798746317625046 0.027131136506795883 0.09890463203191757 -0.0427531860768795 -0.08422960340976715 -0.0029215142130851746 -0.12425187975168228 -0.04043324291706085 0.026928644627332687 0.04718134552240372 -0.08264368772506714 0.06156701222062111 -0.04721388593316078 0.021157681941986084 -0.020546991378068924 0.0816938579082489 0.06062529981136322 0.0899713784456253 -0.06852757930755615 -0.0059795742854475975 0.04914166033267975 0.07706435024738312 -0.07735545933246613 -0.07701364159584045 0.0466550812125206 0.04596777632832527 0.10667261481285095 0.022729389369487762 0.04986163601279259 0.021041009575128555 -0.019985012710094452 -0.06630903482437134 -0.01705634593963623 -0.021207109093666077 0.05041517689824104 -0.12996350228786469 0.03442702069878578 -0.06036634370684624 0.047203995287418365 0.09402772784233093 0.04377362132072449 -0.06230216100811958 0.0698864534497261 -0.040207818150520325 0.020963827148079872 0.014637100510299206 0.04241619259119034 -0.09882737696170807 0.004828120581805706 -0.07229263335466385 0.0015215325402095914 -0.011279947124421597 0.0112270163372159 -0.10564625263214111 0.04101526737213135 -0.024746544659137726 -0.10347506403923035 -0.06090538203716278 0.04374241456389427 0.13259939849376678 -0.08680827915668488 -0.10814091563224792 0.10438665002584457 0.11704002320766449 0.23180226981639862 -0.06096645072102547 -0.03789493441581726 0.10652007907629013 -0.030002452433109283 0.016812069341540337 -0.11591266095638275 0.11680523306131363 -0.014931751415133476 -0.04119950532913208 0.04190896824002266 -0.03639259189367294 -0.08572821319103241 -0.025657430291175842 -0.05460460111498833 -0.1206226497888565 -0.12992344796657562 0.06862350553274155 0.024415919557213783 -0.06396326422691345 0.020623240619897842 0.05219702422618866 -0.005585722625255585 -0.10582125931978226 0.06142674386501312 0.06516772508621216 0.023953378200531006 0.06955380737781525 0.010454884730279446 0.03362065553665161 -0.07464303076267242 -0.08647464960813522 -0.06490515172481537 -0.003612128086388111 0.032228983938694 0.026164904236793518 -0.0461144782602787 0.02413003146648407 0.10158160328865051 0.09438348561525345 0.11343945562839508 0.11726709455251694 -0.07768087834119797 -0.0019138770876452327 -0.08655405044555664 -0.08754097670316696 -0.02368268370628357 0.011641420423984528 0.09820422530174255 -0.025981374084949493 -0.056752223521471024 -0.0015025626635178924 -0.05240235477685928 -0.06175621971487999 0.04293107986450195 0.06701260805130005 0.002111239591613412 -0.03971423953771591 0.057135652750730515 0.099147267639637 0.000590090116020292 -0.06373508274555206 0.07113304734230042 0.0034238919615745544 -0.09495101124048233 0.09286205470561981 0.08696483820676804 0.04846705123782158 0.032540787011384964 -0.07778599113225937 -0.041642844676971436 0.0007065832614898682 0.0015207082033157349 -0.07575424015522003 -0.06012541800737381 -0.015195430256426334 -0.07339534163475037 0.033510517328977585 -0.014093728736042976 -0.02357037365436554 -0.15092121064662933 0.0001746612979331985 0.036678608506917953 0.3319981098175049 -0.093026302754879 -0.03735547885298729 -0.014601914212107658 0.05892052501440048 0.005930356681346893 -0.13379141688346863 -0.1614604890346527 0.020474748685956 0.020334359258413315 -0.012284028343856335 -0.0032341438345611095 -0.1138656958937645 -0.09136692434549332 0.0510249063372612 0.06485886871814728 0.07518637925386429 0.11175311356782913 -0.05716591328382492 -0.09702720493078232 -0.039784710854291916 -0.007298756390810013 0.07614276558160782 -0.054641976952552795 -0.07125788927078247 -0.08108925819396973 0.02343788743019104 -0.02587125636637211 0.08820705115795135 0.0954970046877861 -0.11823680251836777 -0.04321112483739853 -0.0802130252122879 0.05551312491297722 -0.02243318408727646 -0.004968133755028248 0.016822809353470802 -0.01250032614916563 -0.03367753326892853 0.11680252850055695 0.07546336948871613 -0.23361320793628693 -0.04578752443194389 -0.10151024162769318 -0.09649472683668137 0.06383267045021057 0.07173072546720505 -0.008954393677413464 0.03306962922215462 -0.1330702006816864 0.031206224113702774 0.04276259243488312 -0.0860118716955185 -0.05087757855653763 -0.01624300889670849 -0.14184319972991943 0.12611979246139526 0.023941831663250923 0.027709832414984703 0.06744012981653214 -0.06327396631240845 -0.10871504247188568 -0.07218050956726074 -0.015104255639016628 0.07457922399044037 0.0958363339304924 0.05847776681184769 -0.12885114550590515 -0.07711642235517502 4.457221439224668e-05 -0.021344179287552834 -0.002843859838321805 0.11491988599300385 0.02272949181497097 -0.08054938167333603 -0.09546242654323578 -0.09041392058134079 -0.06416943669319153 -0.03487960249185562 0.06004464626312256 -0.00960345659404993 0.1145494282245636 0.10625135898590088 -0.08521414548158646 0.031040996313095093 0.07259784638881683 -0.0844731554389 0.10290958732366562 -0.04613674059510231 0.043141014873981476 0.09903158992528915 0.01116190291941166 -0.008142027072608471 0.10190992802381516 0.007308442611247301 -0.06307893246412277 -0.009588786400854588 -0.09315446764230728 -0.041644737124443054 -0.07931821048259735 -0.008002759888768196 0.0414370596408844 -0.00014207315689418465 0.16030777990818024 0.08262477070093155 0.03975868597626686 0.10165675729513168 0.03544037789106369 0.19913345575332642 0.06965894997119904 -0.043087929487228394 -0.0005864801933057606 -0.13038460910320282 -0.037391409277915955 0.09263160824775696 0.10262014716863632 0.06702987849712372 0.08227434754371643 -0.04630419984459877 0.009108839556574821 0.05007278919219971 -0.054894983768463135 0.04220685362815857 -0.11266858130693436 0.06777521967887878 -0.05067303031682968 0.06955978274345398 0.11248792707920074 0.0713086798787117 -0.05937986075878143 0.005968144629150629 -0.023824982345104218 0.006495170295238495 0.0793466717004776 -0.09969937056303024 0.09697164595127106 0.047812823206186295 -0.12136967480182648 0.05692930519580841 0.027234286069869995 0.025894761085510254 -0.11672327667474747 0.061580590903759 -0.08076927065849304 0.03686821460723877 0.056734949350357056 0.0003148019313812256 0.017741259187459946 0.03315465897321701 0.00954531505703926 -0.07379138469696045 0.09839209914207458 -0.12051612138748169 0.007633709814399481 -0.04171736538410187 -0.10318174958229065 0.0284099280834198 -0.09944980591535568 -0.08765574544668198 0.09462961554527283 -0.07720226794481277 -0.027728090062737465 0.03491717576980591 -0.07600657641887665 -0.0729595348238945 0.03336182236671448 -0.038535065948963165 -0.07012201100587845 -0.010339711792767048 0.01906098797917366 0.023664142936468124 -0.009368881583213806 0.01268313080072403 -0.03806768357753754 0.015906844288110733 -0.01808394491672516 0.07313431054353714 0.048287734389305115 -0.027966037392616272 0.08203721046447754 0.019430428743362427 -0.0850912407040596 0.00815532635897398 0.025238629430532455 -0.01168141607195139 0.0610564760863781 0.0620778426527977 0.07257084548473358 -0.01970754563808441 -0.15398429334163666 0.0029966402798891068 0.042708247900009155 0.06486288458108902 0.04272796958684921 0.0693439245223999 -0.018737269565463066 -0.06650058180093765 0.058883070945739746 -0.04199836775660515 -0.13464665412902832 0.01569993980228901 0.017838116735219955 -0.09427084028720856 -0.047820355743169785 -0.020591897889971733 -0.024797193706035614 -0.12425187230110168 -0.04579998925328255 0.01547332014888525 0.032373085618019104 -0.10079409182071686 0.05847350135445595 0.05631920322775841 -0.09391197562217712 -0.08040612936019897 0.07215434312820435 -0.028013654053211212 -0.023002535104751587 -0.07321809977293015 -0.043596766889095306 0.048267439007759094 0.03094896487891674 0.060350656509399414 0.08721212297677994 -0.010219560004770756 0.003079831600189209 -0.06387054920196533 -0.003590002655982971 -0.024092860519886017 -0.006549417972564697 -0.015606716275215149 0.018438994884490967 -0.06667457520961761 0.0986248105764389 -0.08710012584924698 -0.029859192669391632 -0.0037164539098739624 -0.0884019061923027 -0.09782163798809052 -0.023241333663463593 -0.09601723402738571 0.08271434903144836 0.04239793121814728 -0.0287930965423584 -0.09987989813089371 0.06337599456310272 -0.07493112981319427 -0.09746420383453369 -0.02624526619911194 -0.046612244099378586 -0.025640778243541718 0.09521864354610443 0.023975342512130737 0.053633540868759155 -0.04316427558660507 0.0011856630444526672 0.0887921005487442 -0.004172429442405701 -0.0404207818210125 -0.05257279798388481 -0.07141248136758804 -0.003555305302143097 0.02643759548664093 -0.025489360094070435 0.010695122182369232 -0.04005761817097664 0.07201153039932251 0.07543613016605377 0.03410103917121887 0.021193012595176697 0.058548420667648315 -0.07770327478647232 -0.07451111078262329 0.03175830841064453 -0.06087593361735344 -0.068219393491745 -0.03877606987953186 0.052057504653930664 -0.09506300836801529 -0.05368409305810928 0.08096794784069061 -0.009424582123756409 -0.039182424545288086 0.03069065511226654 -0.07213397324085236 -0.06188276782631874 -0.056976549327373505 -0.003588743507862091 -0.05377853289246559 -0.08843570947647095 0.05046454071998596 -0.00011786073446273804 0.08197484910488129 -0.012122400104999542 -0.0550437793135643 0.0462014377117157 0.04468536376953125 -0.07307419180870056 -0.03978788107633591 -0.029579930007457733 0.007041871547698975 -0.03885409235954285 0.013950929045677185 -0.010986320674419403 0.039073795080184937 -0.0052395835518836975 0.036766424775123596 0.05913238227367401 0.01146446168422699 -0.023361921310424805 -0.09332775324583054 -0.03257068991661072 0.07137526571750641 -0.07223410159349442 -0.05091709643602371 0.07534591853618622 -0.06117412820458412 -0.09863992035388947 -0.09041760116815567 0.00359247624874115 0.023543938994407654 -0.006536039058119059 -0.0571562796831131 -0.018077973276376724 -0.10366871953010559 0.037088386714458466 -0.02201729454100132 0.07658028602600098 0.036911316215991974 -0.03186286240816116 -0.021778274327516556 -0.10436805337667465 -0.012080531567335129 -0.07573965936899185 -0.07075850665569305 -0.08151331543922424 -0.05549285560846329 -0.06856372207403183 -0.09396328777074814 0.1043705940246582 -0.032930612564086914 0.0836971178650856 -0.044986825436353683 -0.05952051281929016 -0.11059235036373138 -0.1084553450345993 -0.006552004721015692 -0.0554303303360939 -0.11317361146211624 -0.05725124478340149 0.022083546966314316 0.09651273488998413 -0.025845251977443695 0.06980547308921814 -0.10644469410181046 0.01637733168900013 -0.07978042960166931 -0.14181439578533173 -0.030283233150839806 -0.12671297788619995 -0.06817814707756042 -0.10917750000953674 -0.11639552563428879 -0.09222231060266495 -0.016694167628884315 -0.024418627843260765 0.0937051996588707 -0.04667811840772629 0.11732631176710129 -0.17828676104545593 -0.07311174273490906 0.01826448366045952 0.04163341224193573 -0.09854675084352493 -0.08310145884752274 0.05654226243495941 0.08762148767709732 -0.08378886431455612 0.08854125440120697 0.07490696012973785 0.11716476827859879 -0.12780305743217468 -0.027069905772805214 -0.025803321972489357 -0.021221384406089783 0.029428238049149513 0.018397275358438492 0.058458298444747925 0.06334379315376282 0.03735228255391121 -0.047983963042497635 0.007807913236320019 0.04071636497974396 -0.11536327749490738 0.0011701503535732627 -0.03208443894982338 -0.07909964770078659 -0.13172324001789093 -0.06221512332558632 0.06758219748735428 0.08090172708034515 0.08682157099246979 0.002751771593466401 -0.11245577037334442 -0.02109694480895996 -0.051899295300245285 0.11535777896642685 -0.014720411039888859 0.03380296379327774 -0.09540306776762009 -0.0042178514413535595 -0.0037673558108508587 0.04417307674884796 -0.010707872919738293 -0.05042918771505356 0.01323466096073389 -0.0037067073862999678 -0.11863938719034195 -0.027527576312422752 -0.02487443946301937 0.04633507877588272 0.020434793084859848 -0.016431989148259163 0.030289530754089355 0.08826711773872375 -0.02455446869134903 -0.0391184538602829 -0.05967707186937332 -0.018702656030654907 -0.12233879417181015 0.07260669767856598 0.05803003907203674 0.029842063784599304 -0.07905738800764084 -0.01737029105424881 0.08971559256315231 0.07963520288467407 0.011799696832895279 -0.044460948556661606 0.005997789558023214 0.008135571144521236 -0.106908418238163 0.04247815161943436 -0.026787903159856796 -0.04104273393750191 -0.09590428322553635 -0.06304202228784561 -0.10521111637353897 0.020313384011387825 0.0895116850733757 0.0028860867023468018 -0.09218865633010864 -0.09888075292110443 -0.006373825017362833 -0.09471889585256577 0.04171151667833328 -0.04522893205285072 -0.1061445027589798 0.024280356243252754 0.04842385649681091 0.041352055966854095 -0.06942538172006607 0.055955421179533005 0.06729035079479218 0.09752506017684937 -0.16820643842220306 -0.07885956764221191 0.024449583142995834 0.09744946658611298 0.0498616099357605 0.0419514961540699 -0.013920377008616924 -0.08877331763505936 -0.05808573588728905 0.08348159492015839 0.015664754435420036 0.022464675828814507 -0.04594951122999191 -0.0390813946723938 0.048347365111112595 -0.1600513607263565 -0.15929244458675385 -0.06573356688022614 -0.09714679419994354 -0.022013116627931595 -0.0017865159315988421 -0.1478007286787033 0.008916636928915977 0.03691664710640907 -0.06899368762969971 0.013136562891304493 0.053291965276002884 0.048609744757413864 0.14100560545921326 -0.005901870783418417 -0.024889720603823662 0.07083912193775177 0.06035594269633293 -0.027859298512339592 -0.0250814538449049 0.07432667911052704 0.04876411333680153 0.06324321031570435 -0.0654723197221756 0.05161851644515991 -0.139526829123497 -0.05749162659049034 0.08097381144762039 0.05603870749473572 0.04254697263240814 -0.10062064975500107 -0.05781226232647896 0.10381435602903366 0.1976010650396347 0.08885544538497925 0.1209842711687088 0.07174713164567947 0.04372989013791084 0.011785764247179031 0.05921456962823868 -0.0021301843225955963 -0.04126382991671562 0.13327759504318237 0.26521730422973633 0.2689529061317444 0.026108767837285995 -0.07002564519643784 -0.07731740921735764 0.26384034752845764 0.17219722270965576 0.3103620111942291 -0.12181694805622101 0.03471622243523598 -0.08234500139951706 -0.01418953388929367 0.08246520161628723 0.19686740636825562 -0.09842245280742645 -0.15471547842025757 -0.06693632900714874 0.3044600188732147 0.26989707350730896 0.16133029758930206 0.013700947165489197 0.05417410656809807 0.09773445874452591 0.16411353647708893 0.2638256847858429 0.21301035583019257 -0.004867921583354473 0.004005666822195053 0.027154142037034035 0.17464646697044373 0.28353258967399597 0.17298999428749084 0.2890131175518036 0.21950127184391022 0.2502204477787018 -0.08358962833881378 -0.08902721107006073 -0.01072606910020113 0.04704972356557846 -0.042821142822504044 -0.1219211220741272 0.10086466372013092 -0.09527619183063507 -0.1036774069070816 0.10203351825475693 0.041872020810842514 -0.014354357495903969 -0.08170564472675323 -0.023934775963425636 -0.08463938534259796 0.023948704823851585 0.1517142951488495 -0.14856132864952087 0.22845469415187836 0.25963038206100464 0.2969472408294678 0.014910921454429626 -0.033298224210739136 -0.13949641585350037 0.04518279805779457 0.1615518033504486 -0.06659397482872009 0.11461024731397629 -0.1083354577422142 -0.18801036477088928 -0.0195555929094553 -0.026690388098359108 0.06670283526182175 -0.0781455785036087 -0.15393155813217163 -0.06594102084636688 0.11196088790893555 -0.0712585374712944 0.0018366690492257476 0.11436285823583603 0.07807716727256775 0.06436540186405182 0.19013608992099762 0.28886789083480835 0.2982582747936249 0.16894207894802094 0.002824944444000721 0.09064789861440659 -0.020745884627103806 0.08127467334270477 0.01301056519150734 -0.0034166090190410614 -0.08676231652498245 -0.02530365064740181 -0.043763626366853714 -0.028231801465153694 -0.04730663448572159 0.06616005301475525 -0.058145176619291306 0.052903156727552414 -0.060113005340099335 0.000414281093981117 0.006012845318764448 0.026447603479027748 -0.023223374038934708 0.06494323909282684 0.03880687057971954 -0.07183590531349182 -0.07295838743448257 -0.039854496717453 0.049235351383686066 -0.013731813058257103 0.00831393152475357 0.02734246663749218 0.04602956399321556 -0.08847445994615555 0.0007060023490339518 0.08933530747890472 -0.007039070129394531 -0.05405842140316963 -0.01779314875602722 0.001761580933816731 0.02999962866306305 0.03234576806426048 -0.10176800936460495 -0.06883358210325241 -0.025399433448910713 0.0044091069139540195 -0.0006574244471266866 0.023858850821852684 -0.05144469067454338 0.015193910337984562 -0.07208222895860672 0.10104034841060638 0.0074857803992927074 0.07505086809396744 0.1124020367860794 0.03445015102624893 -0.07510899752378464 0.03899248316884041 0.06964617222547531 -0.004924634471535683 0.06055706739425659 -0.04179482161998749 -0.008269481360912323 0.10977526009082794 0.04365934059023857 0.07058040797710419 -0.015527157112956047 -0.016113832592964172 -0.08370326459407806 0.03474121913313866 -0.007701973896473646 0.14230063557624817 -0.06530852615833282 -0.06485294550657272 0.06110641732811928 0.06847770512104034 -0.05525653436779976 0.08651076257228851 -0.08544006943702698 -0.09962231665849686 0.052628856152296066 2.69010997726582e-05 0.061902500689029694 0.0055524143390357494 0.02497258223593235 -0.02263125218451023 -0.18470269441604614 0.04502498358488083 0.040258511900901794 -0.09259940683841705 -0.09217192977666855 -0.06814970821142197 0.0502946637570858 -0.041538216173648834 0.09350308775901794 -0.04342379793524742 -0.015360653400421143 -0.005566876847296953 -0.020529398694634438 -0.020959800109267235 0.0015792850172147155 0.06778112053871155 0.07064053416252136 0.04493584856390953 0.13376866281032562 0.045533549040555954 0.08601243048906326 0.1362968385219574 -0.1260206252336502 -0.07502585649490356 0.10812421143054962 0.12371298670768738 0.16666804254055023 -0.3303869962692261 0.03207682445645332 0.05534723028540611 -0.02702084556221962 0.09477730840444565 0.11679944396018982 0.015376782044768333 -0.03751532360911369 -0.09922594577074051 -0.06687092036008835 0.10785233974456787 0.019947461783885956 0.11034476011991501 0.07179619371891022 -0.004435429349541664 0.07040273398160934 0.02840086631476879 0.12152169644832611 0.07701005041599274 -0.08065210282802582 0.0373372845351696 -0.05671979486942291 0.012466308660805225 0.07980170100927353 0.02473084256052971 -0.0859188511967659 -0.06084911897778511 -0.11231104284524918 0.10856348276138306 0.11222324520349503 0.003821072867140174 0.09966429322957993 0.07062605023384094 -0.04593939334154129 -0.04791390150785446 -0.14772948622703552 0.05218997597694397 -0.03165578097105026 -0.012649561278522015 -0.03545275330543518 0.11152199655771255 0.1018143966794014 0.054502811282873154 0.0687105804681778 0.06778673827648163 -0.03521092236042023 0.09461630880832672 0.034367624670267105 0.02231462113559246 0.047991663217544556 -0.09976734220981598 -0.04707231745123863 -0.02790338732302189 0.059277668595314026 -0.03529006615281105 0.06818155199289322 -0.05921078100800514 -0.01738765835762024 0.06906034797430038 0.0864836797118187 -0.018753191456198692 -0.007660759147256613 -0.008863287046551704 -0.03509850054979324 -0.024833396077156067 0.03406496345996857 -0.005851315334439278 0.13907493650913239 -0.062439847737550735 -0.008484944701194763 0.0026355248410254717 0.06522297114133835 -0.03500814735889435 -0.03255278617143631 0.01745438762009144 -0.07498347014188766 -0.053951364010572433 -0.06864951550960541 -0.06878045201301575 -0.030899906530976295 -0.0025096938479691744 -0.1322067528963089 -0.10266151279211044 0.012247963808476925 0.10774210840463638 0.09056305885314941 0.04496197775006294 0.052285607904195786 -0.06663504242897034 -0.0008109828340820968 -0.03821772709488869 -0.1377224177122116 0.10128028690814972 -0.023397011682391167 -0.013845624402165413 -0.012953702360391617 -0.1912418156862259 -0.09820965677499771 -0.09701274335384369 0.07639572024345398 0.06170399487018585 0.07497888803482056 -0.10452821850776672 0.10003475844860077 0.059708788990974426 0.06643368303775787 -0.08286340534687042 -0.053858645260334015 0.02899913862347603 0.017111342400312424 0.06346488744020462 0.1148003414273262 0.06541495770215988 0.07622915506362915 -0.0006718281074427068 -0.0813421681523323 0.06765048205852509 -0.07272256910800934 -0.02354218065738678 -0.03867006301879883 -0.009711050428450108 -0.013968303799629211 0.013376861810684204 -0.027176961302757263 0.06403761357069016 -0.00683677289634943 -0.11195236444473267 0.05993622913956642 -0.07946743071079254 0.06409227848052979 -0.05690786987543106 -0.056988317519426346 0.06747934222221375 0.07126206159591675 0.03270716965198517 -0.10271146893501282 0.11318407207727432 0.0634106919169426 0.06206076964735985 -0.017147548496723175 0.06101948022842407 0.06082808971405029 -0.07200367003679276 -0.05896324664354324 -0.0785406231880188 0.07110074907541275 0.0018048066413030028 0.0361313596367836 0.061666905879974365 0.05197813734412193 -0.0468328483402729 -0.026289694011211395 -0.0646093413233757 -0.02067645452916622 -0.07794468104839325 0.05492917820811272 0.044607069343328476 0.1783386468887329 -0.02193116396665573 0.06625328958034515 0.10366594791412354 0.06287273019552231 0.01141529344022274 0.09549327939748764 0.06661027669906616 0.05595141649246216 -0.07373303920030594 -0.04888661950826645 0.06872542947530746 -0.030538097023963928 0.05783790349960327 -0.09062211960554123 -0.04610400274395943 -0.11448270082473755 0.05764390155673027 -0.03339216113090515 0.06944163143634796 -0.036177858710289 -0.028356853872537613 0.07848004996776581 0.009743308648467064 0.0942813977599144 0.029495984315872192 -0.05091266334056854 0.013431787490844727 -0.023667054250836372 0.16154637932777405 0.02102256938815117 -0.053971678018569946 0.08763694763183594 0.08900976181030273 0.004612016025930643 -0.058786094188690186 0.08012610673904419 0.09878263622522354 0.15863154828548431 -0.03516126051545143 -0.08149257302284241 0.029017146676778793 0.15787388384342194 0.16454343497753143 0.06835372000932693 -0.08156771212816238 0.03014328144490719 0.11703948676586151 -0.08913859724998474 -0.08930937200784683 -0.04296844080090523 -0.023423414677381516 0.018506230786442757 -0.03523562476038933 0.09126641601324081 0.0058603049255907536 0.11752285808324814 -0.048566900193691254 0.04960484430193901 0.047494977712631226 0.05954253673553467 -0.03109302558004856 0.10614417493343353 -0.17444366216659546 -0.042797066271305084 -0.016149811446666718 0.05919281765818596 0.04907284677028656 -0.0017202012240886688 0.09589795023202896 0.06125178933143616 0.13959845900535583 0.08456820249557495 0.07109855860471725 0.09006437659263611 -0.18819408118724823 -0.10259806364774704 0.023302098736166954 0.07247389853000641 0.002597019076347351 -0.12958219647407532 0.03271551802754402 0.08431247621774673 0.05812668800354004 0.05026983097195625 0.08073704689741135 -0.06654821336269379 -0.19101788103580475 0.031699832528829575 0.07417378574609756 0.08488510549068451 -0.05045200139284134 0.0055266935378313065 0.020089702680706978 0.09589856117963791 -0.07716396450996399 -0.04476974904537201 -0.1476050168275833 -0.09463220089673996 0.002095677424222231 0.061593979597091675 -0.020935814827680588 0.04685165360569954 -0.04779530316591263 0.023961123079061508 0.051807619631290436 -0.042365800589323044 -0.06117003411054611 -0.1600344181060791 0.005789713002741337 0.02881094440817833 0.0018622485222294927 0.07443797588348389 0.02173275500535965 0.07450810074806213 0.1504548043012619 0.07606896013021469 -0.0015239508356899023 -0.07410583645105362 0.13036330044269562 0.018527766689658165 -0.0018286120612174273 0.060576409101486206 0.027574755251407623 -0.03822796419262886 -0.04039702191948891 0.0016393825644627213 -0.2627315819263458 0.02280932106077671 0.06746107339859009 -0.051675621420145035 -0.15566687285900116 0.020203599706292152 0.07377108186483383 -0.1050199493765831 -0.0002572041703388095 0.042248789221048355 -0.05420777201652527 0.02619059942662716 -0.04135295748710632 0.08402382582426071 0.049509625881910324 -0.02130984142422676 0.018637679517269135 0.18749745190143585 -0.044424254447221756 -0.07329564541578293 -0.16154484450817108 -0.11089955270290375 -0.2508125901222229 0.07807186990976334 0.01417954359203577 0.0861566960811615 0.11886473745107651 0.012339068576693535 0.07271520793437958 0.017859337851405144 -0.004951024893671274 0.03749789670109749 -0.0720694363117218 -0.10329648107290268 -0.03691259026527405 -0.01133190281689167 -0.09794703125953674 -0.12214168906211853 -0.052954837679862976 0.043118879199028015 -0.07224340736865997 0.12334597110748291 0.07287456840276718 0.1388707309961319 -0.17297902703285217 -0.19581238925457 -0.10146591067314148 0.09490527212619781 -0.007308118045330048 -0.15762437880039215 0.04880543425679207 0.12206222116947174 -0.03832663968205452 -0.046744897961616516 -0.02140396647155285 0.13333655893802643 -0.08938394486904144 -0.11698656529188156 -0.06504334509372711 0.034137826412916183 0.010613515041768551 -0.12252672016620636 -0.07512534409761429 0.02114754170179367 -0.046967171132564545 -0.19102853536605835 -0.09627239406108856 -0.09701947867870331 -0.033218663185834885 0.01797667145729065 0.08250371366739273 -0.2248925417661667 -0.2484901398420334 -0.06496386975049973 0.028842667117714882 0.0305582657456398 0.13636231422424316 -0.11552196741104126 -0.051990944892168045 -0.035387974232435226 -0.05035986378788948 0.08560234308242798 0.1225726455450058 0.05135147646069527 0.03136657923460007 -0.08584817498922348 -0.0033144280314445496 -0.04828466847538948 -0.09580761194229126 -0.060931041836738586 0.027535514906048775 0.03752002492547035 -0.006938215810805559 -0.11651849746704102 -0.03204089775681496 -0.2386007308959961 0.01129838079214096 -0.01183736976236105 0.05848895013332367 -0.0660208910703659 -0.07706442475318909 -0.02242947369813919 0.022174760699272156 -0.008253872394561768 -0.040893860161304474 -0.06590940058231354 0.08043046295642853 0.0740538239479065 -0.0911371186375618 0.012581221759319305 0.09293550997972488 -0.01842167042195797 0.050274282693862915 -0.046674203127622604 -0.002828305121511221 -0.09366871416568756 -0.09474833309650421 -0.11370646208524704 -0.03264674171805382 -0.09918235242366791 0.08838258683681488 -0.08349631726741791 0.029442694038152695 0.07556567341089249 0.05270083248615265 0.0014837458729743958 0.10037744045257568 -0.09002459794282913 -0.0316874198615551 0.03412315994501114 0.10189948230981827 -0.07157383114099503 -0.020198483020067215 -0.16253690421581268 0.08322609961032867 -0.028708644211292267 0.014045864343643188 0.015338554978370667 -0.039369434118270874 -0.04166482761502266 0.03657229617238045 0.003335333662107587 -0.0006624913075938821 -0.028399832546710968 -0.04296672344207764 -0.09272708743810654 -0.0176724661141634 0.11052649468183517 -0.07208552956581116 0.06193741038441658 0.05283072590827942 0.07752323895692825 -0.05485738441348076 0.015478672459721565 -0.054334163665771484 0.13591313362121582 -0.007036219350993633 -0.13879477977752686 0.04571090638637543 0.03686266392469406 0.11460785567760468 -0.10313840955495834 -0.052332472056150436 0.036125097423791885 -0.024557221680879593 -0.03159557282924652 0.09469148516654968 -0.10452409833669662 -0.10777502506971359 -0.09249532967805862 0.05969490483403206 0.08537042886018753 0.09628676623106003 0.007098906207829714 -0.05041621997952461 0.082298144698143 -0.06078888103365898 -0.011650130152702332 -0.05446494743227959 0.025481238961219788 0.09635283052921295 0.051846519112586975 0.06495580077171326 0.04675548896193504 -0.012622839771211147 0.013021260499954224 -0.019608424976468086 -0.0018817723030224442 -0.1204899400472641 0.15210884809494019 0.04622314125299454 -0.0506843738257885 -0.027438674122095108 0.0064896768890321255 0.18349823355674744 -0.12052859365940094 -0.18868045508861542 -0.0754084512591362 -0.10418673604726791 0.026847006753087044 0.07581392675638199 0.022105393931269646 -0.07508044689893723 -0.14691869914531708 0.008358152583241463 0.03410373255610466 -0.06328554451465607 -0.06775273382663727 0.07079232484102249 -0.07572677731513977 -0.0003655116888694465 -0.028993302956223488 0.15295426547527313 0.09259539842605591 -0.056854844093322754 0.0025788522325456142 -0.0890427827835083 0.04673192650079727 0.008019805885851383 0.1126614585518837 0.01674717105925083 0.014708106406033039 -0.1220424622297287 -0.1162143275141716 0.13400742411613464 0.10399328172206879 -0.07385704666376114 0.009917648509144783 -0.052196428179740906 -0.10016107559204102 -0.08525969088077545 -0.08445233851671219 0.005480372812598944 0.006953611969947815 0.019714953377842903 -0.027191784232854843 0.04824801906943321 0.004061216022819281 -0.11039100587368011 0.033589139580726624 -0.08181514590978622 -0.014651499688625336 0.04522800073027611 0.11269983649253845 -0.04344303533434868 -0.10128019750118256 -0.01256389170885086 -0.11052654683589935 0.08787219971418381 -0.02665402740240097 -0.11407840996980667 -0.25037699937820435 -0.11244544386863708 -0.017004864290356636 0.05827784910798073 0.031218165531754494 0.026103666052222252 0.14698545634746552 0.10533079504966736 0.019126344472169876 -0.0015388020547106862 -0.06372764706611633 0.0828903317451477 -0.1120532974600792 -0.04204444959759712 -0.021272502839565277 -0.040280554443597794 0.013760318048298359 -0.12440338730812073 -0.008929712697863579 -0.027475029230117798 0.0580766499042511 -0.023625653237104416 -0.029965072870254517 0.00047391728730872273 0.040752653032541275 0.04852016270160675 0.020536024123430252 0.11882190406322479 0.08110357075929642 -0.0799623429775238 0.14015762507915497 0.06864739954471588 -0.04197486862540245 0.032785896211862564 -0.004993478301912546 0.0248534195125103 0.007404775824397802 -0.08115652948617935 -0.08953491598367691 -0.13814473152160645 -0.1342974603176117 0.12862995266914368 -0.030178256332874298 -0.010223910212516785 -0.07481367141008377 -0.03807879984378815 0.09948837757110596 0.13489475846290588 -0.0399644672870636 -0.02780754119157791 -0.01322118192911148 -0.04627639800310135 0.030079593881964684 0.03854862600564957 -0.0811428651213646 0.0006936279824003577 -0.056340236216783524 -0.12386441975831985 -0.1390804946422577 0.06471366435289383 0.027829661965370178 -0.08001865446567535 0.01815309375524521 0.107417993247509 -0.0728449746966362 0.038834188133478165 -0.07542122900485992 -0.006900273263454437 0.04907868802547455 -0.10467293858528137 0.06358321011066437 -0.017640559002757072 -0.09060753136873245 0.03580549731850624 -0.02966132201254368 0.014753252267837524 -0.09749171137809753 0.07199491560459137 0.1096135824918747 0.12281551212072372 -0.016947591677308083 -0.013855076394975185 0.09037096798419952 -0.04083310440182686 0.0947452038526535 0.09960758686065674 -0.08500849455595016 0.09932151436805725 0.09842357784509659 -0.06444422900676727 0.03191326931118965 0.11769455671310425 0.09540008008480072 -0.03172505646944046 -0.08515848219394684 0.14329393208026886 -0.04455327242612839 -0.16293160617351532 -0.11768241226673126 -0.018686261028051376 0.10652562975883484 0.027148831635713577 -0.023527512326836586 -0.060484521090984344 -0.051846399903297424 -0.044877856969833374 -0.054791130125522614 -0.011717376299202442 -0.12445646524429321 0.07646722346544266 -0.015137553215026855 -0.040438368916511536 -0.0009153439896181226 -0.07400047034025192 0.03055892512202263 0.06326822191476822 0.05964547023177147 0.038764838129282 0.14827175438404083 -0.07998039573431015 -0.06832093000411987 0.010630644857883453 -0.04343520477414131 -0.017299115657806396 -0.10841568559408188 0.04363465681672096 -0.05575396493077278 -0.032617561519145966 -0.003603282617405057 0.0807344913482666 -0.029447875916957855 0.11237063258886337 0.08887140452861786 0.06457588821649551 0.12059495598077774 0.07813043892383575 -0.006408408284187317 -0.035974860191345215 0.1271606832742691 0.05812203511595726 0.00787302665412426 -0.012278774753212929 0.0045220330357551575 -0.06159543618559837 -0.018470535054802895 0.11992909759283066 0.134560689330101 0.03219500556588173 -0.027349866926670074 -0.07905866950750351 0.14951683580875397 0.09345654398202896 -0.0036722414661198854 -0.011229178868234158 0.11076244711875916 -0.06793995946645737 0.15708601474761963 0.005938400514423847 -0.015855779871344566 0.004193475004285574 -0.03894314542412758 -0.09028193354606628 0.059234991669654846 0.016208330169320107 0.056840963661670685 0.02681158110499382 -0.026361823081970215 0.07858920097351074 0.03399233520030975 0.04137812927365303 0.16211433708667755 0.1296020895242691 0.13240355253219604 0.10749956965446472 -0.044387612491846085 -0.08063222467899323 -0.02198070101439953 0.10478835552930832 -0.011699478141963482 -0.035629235208034515 -0.07828356325626373 0.0006477609276771545 -0.04469034820795059 0.028524255380034447 0.0430428721010685 0.07157868146896362 -0.11694227904081345 0.05216154083609581 -0.09315784275531769 0.025681905448436737 0.0902346819639206 -0.006849872879683971 -0.041866153478622437 0.01272018812596798 0.16303758323192596 0.0015772257465869188 0.07434815168380737 0.08723525702953339 0.013124417513608932 0.0769338384270668 0.01652449555695057 0.04246836155653 0.03537581115961075 -0.05971681699156761 -0.10151710361242294 -0.04035494476556778 -0.09881044179201126 -0.1342112421989441 -0.012208922766149044 0.09819003939628601 0.024341516196727753 0.04398755729198456 -0.025631118565797806 -0.043293245136737823 -0.04909273609519005 0.022394992411136627 0.12118643522262573 0.05666846036911011 0.12634527683258057 0.05218126252293587 0.12146472930908203 0.1367584615945816 0.04739699140191078 -0.06905628740787506 -0.10899753123521805 0.00814733188599348 0.07211320847272873 -0.004445771686732769 0.02237517572939396 -0.12328881770372391 0.06984757632017136 0.07740703225135803 -0.03655729442834854 -0.030234815552830696 -0.03825484588742256 0.030547263100743294 -0.11462652683258057 -0.1032484620809555 -0.06412461400032043 0.0820462703704834 0.03875836730003357 -0.04136401414871216 -0.024458779022097588 0.0004442065255716443 0.08861768990755081 -0.012059647589921951 0.061469219624996185 -0.03812027722597122 -0.10575445741415024 0.013577660545706749 0.06238538771867752 -0.021473200991749763 0.04905135929584503 -0.002012748969718814 0.051537081599235535 0.061651811003685 0.07070732116699219 -0.0433557964861393 -0.007353616878390312 -0.12856248021125793 0.05470329523086548 -0.12146154791116714 -0.09155712276697159 -0.024060795083642006 -0.04666291922330856 -0.027772357687354088 0.044229935854673386 -0.07857707887887955 -0.03408612310886383 -0.05846424400806427 0.030510082840919495 0.04026039317250252 0.08885939419269562 -0.058317333459854126 0.05422939732670784 -0.00014842255041003227 -0.010055236518383026 0.0641416609287262 -0.06904323399066925 -0.049534767866134644 -0.07965313643217087 -0.0023115091025829315 0.012841617688536644 0.07202804833650589 0.09468360990285873 -0.10875629633665085 -0.09317166358232498 -0.036220043897628784 -0.03825794532895088 0.11186601966619492 0.008747164160013199 0.046493351459503174 0.023330383002758026 0.0793890506029129 -0.030581902712583542 -0.10077937692403793 -0.1258915513753891 -0.013565974310040474 -0.08519569784402847 -0.009075557813048363 -0.2157772332429886 -0.17932672798633575 -0.12006504088640213 -0.09391938149929047 -0.06663305312395096 0.10942564904689789 0.058458972722291946 -0.02446887455880642 -0.089069664478302 -0.0787041187286377 0.011636297218501568 0.07452971488237381 -0.08025472611188889 0.02113202214241028 -0.018208445981144905 0.0461188405752182 0.07184650748968124 0.13525493443012238 0.06603708863258362 -0.02806953527033329 -0.010537691414356232 -0.02463589794933796 -0.0788574144244194 -0.012731702998280525 -0.0025925380177795887 -0.04802791401743889 -0.12673884630203247 -0.12797126173973083 0.008686559274792671 -0.05447769537568092 0.03655848279595375 -0.019755985587835312 -0.07748692482709885 -0.004999848082661629 0.07500790804624557 0.049160655587911606 -0.10256768018007278 -0.10809647291898727 -0.07031659781932831 0.05975319817662239 0.03554121032357216 -0.03846403956413269 -0.10487517714500427 -0.0006534666754305363 -0.09878134727478027 0.0065342215821146965 -0.08016428351402283 0.09973612427711487 0.02794618532061577 -0.01648745872080326 -0.04964272305369377 0.05980930104851723 -0.1340816617012024 -0.1095551997423172 0.0461677648127079 -0.029884278774261475 -0.08026941865682602 -0.08546527475118637 0.0645395815372467 0.13129054009914398 0.003300565527752042 0.0844973549246788 0.04639039933681488 -0.08008512109518051 0.014410266652703285 0.03990074247121811 0.029686255380511284 0.03435280919075012 -0.09785690158605576 -0.07555233687162399 -0.08055306226015091 -0.00494651822373271 0.05080626904964447 -0.012682005763053894 -0.06503725051879883 0.05370073765516281 -0.13192641735076904 -0.06777883321046829 -0.031466659158468246 0.09972859919071198 -0.01781460829079151 -0.14269916713237762 0.0074645038694143295 0.15909717977046967 0.032419007271528244 -0.04557115584611893 -0.07402856647968292 -0.04087258502840996 -0.060137104243040085 -0.09889500588178635 -0.07939302176237106 -0.06934313476085663 0.1683124601840973 0.014624441973865032 0.10138864815235138 0.05997831001877785 -0.03096119500696659 0.015375124290585518 -0.10166209191083908 -0.06069449335336685 -0.07459724694490433 -0.052652016282081604 0.04867294058203697 -0.025304686278104782 -0.0315999910235405 0.00019406076171435416 0.052203454077243805 -0.13068652153015137 -0.030838508158922195 0.011652707122266293 -0.045217931270599365 0.09958124905824661 -0.04188629239797592 -0.044567644596099854 -0.02500104531645775 0.06205498427152634 0.09764809906482697 -0.014430340379476547 0.08800291270017624 0.004798111040145159 0.08289608359336853 -0.09141886234283447 0.03021814301609993 0.045237958431243896 0.03323447331786156 0.023479104042053223 -0.09747809916734695 0.016774296760559082 -0.04893052950501442 0.0980212539434433 -0.07533043622970581 -0.025907710194587708 0.0317065492272377 -0.025240637362003326 -0.02621482126414776 -0.0432891920208931 -0.027581073343753815 0.03349849209189415 0.039768483489751816 -0.10414467006921768 0.07274166494607925 -0.02152395248413086 0.011664774268865585 -0.0717388167977333 -0.07072639465332031 -0.06746259331703186 -0.1317140758037567 -0.045320235192775726 0.04834331199526787 0.04127813130617142 -0.04402490705251694 0.031334009021520615 -0.11875944584608078 0.09910359978675842 0.022469833493232727 -0.07573838531970978 0.07616322487592697 0.06733276695013046 -0.01402165088802576 -0.04755230247974396 -0.005423842929303646 -0.109779492020607 -0.0328105092048645 0.02451641671359539 -0.07140172272920609 -0.054214682430028915 -0.033887095749378204 -0.0811222568154335 -0.0680869072675705 -0.04175639897584915 -0.09887819737195969 0.06586857885122299 0.002080893609672785 0.012198790907859802 -0.047383613884449005 -0.09624792635440826 0.014540397562086582 -0.00022815846023149788 0.08670338243246078 -0.1154203787446022 -0.06465764343738556 -0.0048598251305520535 -0.05300389602780342 0.07031998038291931 -0.0674232542514801 -0.04636523872613907 0.04889088124036789 0.08309779316186905 -0.006866851821541786 0.06035640090703964 0.0648856833577156 -0.08589685708284378 0.12392494082450867 -0.05099424719810486 -0.08476463705301285 -0.05479244515299797 0.043920185416936874 -0.06410372257232666 0.10353752225637436 0.043165892362594604 -0.09824789315462112 0.06106150895357132 -0.10648469626903534 0.08596757054328918 -0.018062252551317215 0.059069711714982986 0.04716000705957413 -0.06888984888792038 0.015948094427585602 0.03263074904680252 -0.038718827068805695 0.0572701096534729 -0.09451838582754135 -0.12609633803367615 -0.09275668859481812 0.05624108761548996 -0.023864826187491417 -0.054567813873291016 0.044722914695739746 0.06988663971424103 -0.06662803888320923 -0.08772412687540054 0.035856667906045914 -0.06746172159910202 -0.07762431353330612 -0.014285589568316936 -0.06065572053194046 0.009970066137611866 -0.07121122628450394 0.036986127495765686 0.03746888041496277 -0.021162360906600952 0.12109725922346115 -0.028986120596528053 -0.054173585027456284 -0.054566316306591034 0.0067065684124827385 -0.11107040196657181 -0.05753731355071068 -0.06821468472480774 -0.0412323884665966 0.03579751029610634 0.026987509801983833 0.09493299573659897 -0.0035135773941874504 0.11311708390712738 -0.04502742365002632 -0.01995885744690895 0.014356158673763275 -0.11129721999168396 -0.13565459847450256 -0.11134126037359238 0.09697997570037842 -0.040210481733083725 0.04850452020764351 -0.00978281069546938 -0.09329704195261002 0.029742039740085602 0.12154410779476166 0.042474742978811264 0.1355590969324112 -0.16620631515979767 -0.12223585695028305 -0.024408584460616112 0.04502645134925842 0.019457511603832245 -0.12071394920349121 -0.06987953186035156 -0.07618909329175949 -0.04159257560968399 0.06215355917811394 -0.05470145866274834 0.04990508779883385 -0.15183492004871368 -0.06727880239486694 -0.07007364928722382 0.04533687233924866 -0.03664534166455269 -0.1370035856962204 0.11083265393972397 0.08078353106975555 -0.03997562453150749 -0.09641817957162857 -0.20151111483573914 -0.08738180249929428 -0.07635203003883362 0.010807757265865803 0.04452623426914215 -0.1207093819975853 0.04724806547164917 0.053362611681222916 0.06257573515176773 0.07948523014783859 0.06332892179489136 -0.11722413450479507 0.02024109475314617 -0.03124414198100567 0.0018369047902524471 0.0442727766931057 0.09379598498344421 0.03453076630830765 0.008909236639738083 -0.09369716793298721 -0.04460770636796951 0.10856185108423233 -0.06415709853172302 0.042393799871206284 -0.05666413903236389 0.08224736154079437 -0.07939989119768143 -0.04677297919988632 0.08709310740232468 -0.1067168265581131 0.08724161237478256 0.07939323782920837 -0.07155708223581314 0.07603782415390015 -0.0595521554350853 0.10688334703445435 0.08293018490076065 0.04942871257662773 -0.05863267928361893 -0.048597753047943115 -0.007388463243842125 0.0874732956290245 0.04669662564992905 -0.0029695986304432154 0.09601238369941711 0.08674515783786774 0.06550418585538864 0.024195047095417976 -0.011295776814222336 -0.04610481113195419 -0.10201091319322586 0.02780410647392273 -0.08469400554895401 -0.022607995197176933 0.0196406077593565 0.06074442341923714 -0.026849810034036636 0.011430876329541206 -0.03037366271018982 0.05228690803050995 -0.046166542917490005 0.06416469812393188 -0.05904221907258034 -0.10581647604703903 -0.0733589380979538 0.08916445821523666 0.05106722563505173 -0.11578371375799179 0.06673023104667664 0.005793910939246416 0.02128058485686779 0.07688524574041367 0.062386926263570786 -0.08129998296499252 -0.14246617257595062 0.023475700989365578 -0.009065394289791584 -0.017105035483837128 -0.014780215919017792 -0.09703043848276138 0.0678258016705513 0.010514817200601101 -0.03702966496348381 -0.09311018884181976 0.06987442076206207 0.09649430960416794 -0.02128427103161812 -0.08447744697332382 -0.06799165904521942 0.045154985040426254 0.017547430470585823 0.11569355428218842 0.08555299788713455 0.068104587495327 -0.05841818451881409 -0.06181101128458977 -0.1571190059185028 -0.05766523629426956 -0.043950438499450684 0.0486089251935482 -0.0754384994506836 -0.15094146132469177 0.03579492121934891 0.01906723342835903 -0.08385605365037918 -0.020039087161421776 0.08921413123607635 -0.1300215870141983 -0.011739485897123814 0.06447747349739075 -0.01500170212239027 0.05115716531872749 0.06422963738441467 0.023950304836034775 -0.052216578274965286 -0.03132322058081627 0.02766522392630577 -0.05216795951128006 0.06286830455064774 0.07037566602230072 0.07564522325992584 0.065205879509449 0.08928783982992172 0.10763416439294815 0.006996852811425924 0.0743265151977539 -0.06441769748926163 0.009741107001900673 -0.07693493366241455 -0.0832686722278595 0.04185464605689049 0.22259001433849335 0.18741901218891144 0.1815483123064041 -0.03177691251039505 -0.1473306119441986 -0.08219756186008453 0.07324838638305664 0.20834308862686157 0.11882147192955017 -0.053707677870988846 -0.03827492892742157 -0.08294500410556793 0.0863686054944992 0.004182080738246441 0.0558050200343132 0.04757935553789139 0.04792296141386032 -0.033185992389917374 0.16517208516597748 0.20879913866519928 0.22239205241203308 0.06688050180673599 -0.0994497537612915 -0.0421939380466938 0.1879006028175354 0.18664565682411194 0.20320291817188263 -0.02600187249481678 -0.010931160300970078 -0.08119465410709381 0.008719476871192455 0.1897977590560913 0.09637599438428879 0.26380786299705505 0.08200493454933167 0.23723925650119781 0.057964399456977844 0.02417498268187046 -0.07499762624502182 0.023981453850865364 0.011780381202697754 -0.09965112060308456 -0.0997103676199913 0.0656813383102417 0.06016409397125244 0.00823947787284851 0.012317817658185959 0.1410750150680542 0.036301758140325546 0.09243040531873703 -0.02374086156487465 -0.11386749893426895 0.11818646639585495 -0.05457998812198639 0.172146737575531 0.0968899205327034 0.020073333755135536 -0.07702887803316116 -0.09626425802707672 -0.0874176174402237 0.037755273282527924 0.07955369353294373 0.16828759014606476 -0.003222462022677064 -0.12829376757144928 0.044203534722328186 -0.039642609655857086 0.06388230621814728 -0.03564880043268204 0.024202244356274605 -0.062018558382987976 -0.06083717942237854 -0.03256979212164879 -0.00043994514271616936 -0.01550565380603075 0.06022633612155914 0.023615872487425804 0.11744824796915054 0.1300508677959442 0.2229468822479248 0.07423429191112518 -0.032470688223838806 -0.005577900446951389 -0.034713756293058395 -0.09339342266321182 0.03731825575232506 -0.050329502671957016 -0.035755518823862076 -0.06545091420412064 -0.12052243202924728 0.07295984029769897 0.021948598325252533 0.07915963232517242 -0.12201808393001556 -0.048751577734947205 0.025990983471274376 -0.02932196855545044 0.05070292204618454 0.05827762559056282 0.09326691925525665 -0.09521324187517166 -0.0008390711736865342 0.05619065836071968 0.018528861925005913 -0.12072502076625824 0.009317743591964245 -0.06059075891971588 0.07966269552707672 0.03751584142446518 -0.03288980945944786 -0.03883175551891327 -0.08364110440015793 0.03488609567284584 0.019653337076306343 0.08008735626935959 -0.09238135069608688 -0.012728976085782051 -0.011558457277715206 0.10837569087743759 -0.07821455597877502 0.07461929321289062 -0.07902681082487106 0.06502525508403778 0.12209977209568024 -0.058833617717027664 -0.0157635435461998 0.0038967644795775414 -0.1107652559876442 -0.018308982253074646 0.012306475080549717 -0.1085047721862793 -0.07637667655944824 0.03188769519329071 -0.03174281492829323 0.08466514199972153 -0.03623608499765396 -0.10735541582107544 -0.07694056630134583 -0.003216095268726349 0.057521507143974304 0.06783871352672577 0.04050199314951897 0.0287508275359869 0.0789109617471695 0.058686263859272 0.09266723692417145 0.09313292056322098 -0.031121157109737396 -0.011068764142692089 -0.07887331396341324 -0.10973062366247177 -0.06466663628816605 0.0590280145406723 0.09000058472156525 0.012708107940852642 0.07551976293325424 -0.024237746372818947 0.06855754554271698 -0.08547649532556534 0.09712164849042892 -0.050241466611623764 0.07701738178730011 -0.05626218020915985 -0.06409906595945358 0.06621679663658142 0.07362458109855652 0.11053270101547241 -0.01767066866159439 -0.0013403564225882292 0.03521794080734253 -0.07781017571687698 -0.000796138308942318 0.09933366626501083 -0.027685990557074547 -0.0607263445854187 -0.05112869292497635 -0.07862946391105652 -0.03291323408484459 0.07835571467876434 -0.03173534572124481 0.055545855313539505 0.05865001678466797 0.0164976604282856 -0.09861386567354202 -0.017574945464730263 0.07700414210557938 -0.16720865666866302 -0.07668738812208176 -0.01608976535499096 0.18560472130775452 0.17206431925296783 -0.22361187636852264 0.00923321396112442 -0.0022377765271812677 0.07773733884096146 0.035742878913879395 -0.05157863721251488 -0.02367870695888996 -0.07053452730178833 0.032657187432050705 -0.04153187572956085 -0.030419202521443367 -0.062150873243808746 0.05571291595697403 -0.014149048365652561 0.011828468181192875 0.059822820127010345 0.09087681025266647 0.14278949797153473 -0.05756320804357529 0.020980356261134148 0.054104842245578766 -0.06706612557172775 0.07108386605978012 -0.03902342543005943 0.005067052319645882 0.05156850442290306 -0.10712597519159317 0.0016054072184488177 0.06560416519641876 -0.03712131828069687 0.09114421904087067 0.12386075407266617 -0.06548325717449188 -0.05636348947882652 -0.011679016053676605 -0.018627949059009552 -0.006008033640682697 0.0072988965548574924 0.015850255265831947 -0.045731984078884125 0.02973165549337864 0.13270315527915955 0.004384001716971397 -0.07491125166416168 -0.04846964403986931 0.005474790930747986 0.02522665075957775 -0.09928277879953384 -0.07012144476175308 -0.06854532659053802 0.0048161945305764675 -0.13045498728752136 0.12201870232820511 0.14463575184345245 -0.04850770905613899 0.056344885379076004 -0.058740753680467606 -0.05719584599137306 0.05178092420101166 -0.0037525570951402187 -0.01781700924038887 0.014263087883591652 0.030277473852038383 0.07673868536949158 0.13195817172527313 0.10700298845767975 -0.10176999121904373 0.15024171769618988 0.08571262657642365 -0.086978018283844 0.08496510982513428 -0.13967864215373993 -0.1484862118959427 -0.016879044473171234 0.052824780344963074 -0.09775683283805847 -0.02769649773836136 -0.08832475543022156 -0.07753670960664749 0.06717938929796219 -0.06422645598649979 0.030927518382668495 -0.08235734701156616 0.004442628473043442 0.041681040078401566 -0.06052722409367561 0.08055072277784348 0.060240764170885086 0.01843954436480999 0.07397352904081345 -0.013041906990110874 0.027907075360417366 -0.14117826521396637 -0.10021337121725082 -0.09606562554836273 -0.11138056218624115 -0.05883215367794037 0.07489736378192902 -0.08898700773715973 0.021213404834270477 -0.06164396554231644 0.025234263390302658 0.11173177510499954 0.0016586929559707642 0.08814500272274017 0.08923836052417755 0.0834219679236412 0.009145043790340424 0.039359841495752335 -0.02861238643527031 0.052926719188690186 -0.05075894668698311 -0.036052264273166656 -0.0415249727666378 -0.050120458006858826 0.048863574862480164 -0.03129301220178604 -0.028991319239139557 0.05502733588218689 -0.07367141544818878 -0.03991342708468437 -0.005568601191043854 0.03419514000415802 -0.07827454060316086 -0.0721159353852272 -0.11824926733970642 -0.04449135810136795 -0.1443980634212494 -0.06149031221866608 -0.019413629546761513 0.04081869125366211 0.029808178544044495 0.006002746522426605 -0.05132057145237923 -0.015317965298891068 0.0738685354590416 0.033084556460380554 -0.00502559170126915 0.13720038533210754 0.019224591553211212 -0.031107112765312195 -0.03804297745227814 0.00211157975718379 0.10686775296926498 0.03741439804434776 0.08698076009750366 0.05651472136378288 -0.10319521278142929 -0.1434563249349594 -0.008849794045090675 0.06806547939777374 -0.031887345016002655 -0.09166519343852997 -0.04187122732400894 -0.07291630655527115 0.09944073110818863 -0.044058673083782196 0.01082532573491335 -0.10172294825315475 0.09037437289953232 0.003334827022626996 0.033214740455150604 0.0987779051065445 -0.011044932529330254 0.004955479875206947 -0.09005531668663025 -0.03956075385212898 0.08562542498111725 0.06899693608283997 0.07910627871751785 0.018384160473942757 0.030557211488485336 0.038227807730436325 0.045554328709840775 -0.12810903787612915 -0.00840509682893753 0.04745282232761383 -0.039456456899642944 -0.10140547901391983 0.0480850487947464 0.04836023598909378 -0.013329514302313328 0.06478571146726608 0.06500402837991714 -0.0765448585152626 -0.003939300309866667 0.05988666042685509 0.0747326910495758 -0.04348241910338402 -0.015560957603156567 -0.05925316736102104 0.02571094036102295 0.03645003214478493 -0.10461274534463882 -0.05192924290895462 0.0533880852162838 -0.08852872997522354 0.029281793162226677 -0.04876800999045372 0.03813762217760086 -0.11722055077552795 -0.08383814245462418 0.060319121927022934 0.12508150935173035 0.05276745930314064 0.021035483106970787 0.01774444244801998 0.05925796553492546 -0.06126227229833603 -0.06211649626493454 -0.08800659328699112 -0.02719074860215187 0.03293059021234512 0.02456493489444256 0.03186998888850212 -0.028492793440818787 0.05293732509016991 -0.09729164838790894 0.03844856843352318 0.054372359067201614 0.02151455171406269 -0.14089061319828033 -0.04960676282644272 -0.05645817145705223 -0.047704052180051804 0.0463419035077095 -0.06804630905389786 -0.09088469296693802 0.04629003256559372 0.06560929119586945 -0.010576668195426464 0.043729446828365326 -0.15748882293701172 -0.057651400566101074 -0.11861691623926163 0.08146554231643677 0.012764707207679749 -0.0727829560637474 -0.016889015212655067 0.1268807053565979 0.0909673199057579 0.09709735214710236 -0.00986040011048317 0.11133451014757156 -0.09963952004909515 0.0015996888978406787 -0.06932023912668228 0.06858691573143005 -0.013766780495643616 -0.07452888041734695 0.09505657851696014 -0.042194101959466934 0.041408903896808624 -0.04762469604611397 -0.11009658873081207 -0.1441483050584793 -0.04832032695412636 0.05776730552315712 0.009074060246348381 -0.17835938930511475 -0.07939519733190536 -0.05403950437903404 -0.04545849189162254 -0.06527702510356903 0.041922036558389664 -0.13222771883010864 0.006649273447692394 0.03833417966961861 0.04453622177243233 0.1029365286231041 0.07358180731534958 0.005504119209945202 -0.08723177015781403 -0.03437566012144089 0.07164453715085983 0.02350815013051033 0.010319000110030174 -0.010923300869762897 -0.07291467487812042 0.010955818928778172 -0.02827918715775013 0.014409876428544521 -0.1240532174706459 -0.032826922833919525 -0.08045446872711182 -0.021138956770300865 0.047760941088199615 -0.150534525513649 0.025436582043766975 0.048704247921705246 0.028731048107147217 -0.141408771276474 -0.05337878316640854 0.07613089680671692 0.0007797041325829923 0.04968099296092987 -0.1035294458270073 -0.02007538639008999 0.0793454498052597 0.04187887907028198 -0.028450261801481247 -0.06033104658126831 -0.11210872232913971 -0.02854813262820244 -0.10588373243808746 0.0106517868116498 -0.01561746560037136 0.0017106671584770083 -0.029873784631490707 0.0522053986787796 0.08592766523361206 0.13593079149723053 -0.06995085626840591 0.003625155659392476 -0.05222154036164284 -0.1351030170917511 0.06842090934515 0.04384580999612808 -0.06582538038492203 -0.008706408552825451 -0.07677125930786133 -0.031644802540540695 -0.06304430961608887 -0.0030270114075392485 0.014291160739958286 -0.08552408218383789 -0.04535548388957977 0.02111591026186943 -0.012868998572230339 -0.044891975820064545 -0.10442928969860077 -0.007818497717380524 -0.02543998509645462 -0.034914448857307434 -0.05014195665717125 -0.007996181026101112 0.021691562607884407 0.06516508013010025 0.11783140897750854 0.05225386470556259 0.012515498325228691 -0.13082687556743622 0.00883889477699995 0.14639203250408173 -0.03865799307823181 0.03529337793588638 0.09030706435441971 -0.04946460202336311 0.08558813482522964 -0.031002771109342575 -0.00013476592721417546 -0.11378834396600723 -0.13748714327812195 -0.1533823162317276 -0.07981305569410324 -0.11969802528619766 -0.11330943554639816 -0.12492138892412186 0.08816909044981003 0.05775176361203194 0.1728370636701584 -0.05399210751056671 -0.08981671184301376 -0.07582520693540573 -0.09577685594558716 0.025413034483790398 0.11113759875297546 0.045940179377794266 0.023018665611743927 -0.04334687441587448 0.10466526448726654 0.09809356182813644 -0.04100312665104866 -0.01952093094587326 -0.06777682155370712 -0.036299120634794235 0.019314290955662727 -0.004565917421132326 0.03211700916290283 0.07005774974822998 -0.05203581973910332 0.015563255175948143 -0.002131745219230652 -0.05995486304163933 0.008181784301996231 -0.01648646593093872 -0.06441961228847504 -0.05295476317405701 -0.0985291451215744 0.04672199860215187 -0.06935641914606094 0.05642956495285034 -0.05925295501947403 0.006986842956393957 -0.010632657445967197 -0.05274825915694237 -0.08750724047422409 -0.0678548514842987 0.02022506296634674 0.057534292340278625 -0.09312835335731506 -0.10154368728399277 -0.048182159662246704 -0.02451281249523163 -0.08674735575914383 -0.014142722822725773 0.01508752815425396 -0.00854883249849081 -0.04636454954743385 0.04892417788505554 -0.01887250319123268 0.06037012115120888 -0.004336426965892315 0.016600919887423515 -0.09788164496421814 -0.07701481133699417 -0.09001395106315613 0.0193431805819273 -0.08537621796131134 -0.02992718480527401 -0.09253451228141785 -0.047473128885030746 -0.08506976813077927 -0.13667833805084229 0.020703880116343498 0.050499893724918365 0.044458579272031784 0.09446224570274353 0.010120727121829987 -0.01686975173652172 -0.030802307650446892 0.06816782802343369 0.035776909440755844 -0.00928482785820961 -0.09369557350873947 -0.059532035142183304 -0.002383741782978177 -0.040864672511816025 0.02429984323680401 -0.10425442457199097 -0.06435807794332504 -0.031465332955121994 -0.009034746326506138 0.08540618419647217 0.058534782379865646 0.00558943348005414 -0.03202022239565849 -0.022903654724359512 -0.008464093320071697 0.024291254580020905 0.08977434784173965 -0.09772669523954391 0.2743064761161804 -0.020059365779161453 7.110678416211158e-05 0.025058342143893242 -0.13200165331363678 -0.011609143577516079 -0.09712405502796173 0.0853218287229538 0.06765077263116837 